1381 128
280701 -0.16424698 0.32246184 0.2135371 -0.5036755 0.25874165 -0.507719 -0.42274418 -0.27155864 -0.4332374 0.38559395 -0.048986144 -0.7521524 0.563482 0.17269072 -0.090468004 0.011810926 -0.09293593 -0.3744655 -0.049519528 -0.2287188 -0.5242668 -0.0830349 0.5587851 -0.95041186 0.022210028 -0.36283726 -0.5357682 0.44593328 0.0679732 0.46072948 1.2000425 0.6646917 0.9923807 -0.53369623 -0.43536305 0.09126384 0.3694418 0.20692757 -0.19101243 0.5461254 -0.41809875 -0.33374733 -0.49883324 -0.86149746 0.7537747 -0.9484777 -0.21405596 -0.5152766 -0.28472263 -0.29121387 0.07306299 0.49455824 0.66428447 0.2553807 -0.48199475 -0.48235577 -0.4134245 -0.29619437 0.020131996 0.35169053 0.09614476 -1.1244799 0.35753137 0.21676968 0.22723132 0.1041902 -0.3118423 -0.20317209 0.8972356 0.5108415 0.39909744 -0.4865071 -0.16748254 -0.25243703 0.40142342 0.1283798 0.7399468 -0.41416442 0.2363884 0.4150296 -0.027435102 0.54878604 0.6891296 -0.44828427 -0.0694838 -0.70702296 -0.26843172 0.0719504 0.47608462 0.12279773 0.089459814 0.21224119 0.31476536 0.37787092 1.0279354 -1.0582528 -0.13178769 0.06843907 -0.26412508 -0.3067015 0.6538965 -0.16351804 0.2715992 0.69359595 1.0069985 -0.8895299 0.3233523 0.007731564 -0.122318305 0.50334793 -0.22149327 -0.0361083 -0.45576477 0.4415155 -0.26618358 0.037208326 0.31428382 0.62159437 0.44273633 -0.49235117 -0.37265334 -0.50422776 0.41991386 0.4387799 -0.47992137 0.2935784 0.2601342 0.12345427
312288 -0.72523296 -0.16863577 -0.19125733 -0.05565956 -0.22997151 -0.57361925 -0.10896349 -0.05370438 -0.037022386 -0.024758372 -0.008259939 -0.42213815 0.992322 0.42526004 0.14286217 0.2217448 0.06070662 -0.1434022 -0.29926682 0.5153149 0.16794066 0.27109343 0.13176924 -0.6926108 0.23529531 0.22530364 -0.07165499 0.82749027 -0.5352029 0.2817719 0.2674854 0.4937273 0.22811168 0.026516357 -0.43985802 0.8607339 0.053668004 0.35840455 -0.31240928 -0.37360814 0.21376327 0.18128127 -0.61719304 0.4939426 0.69848776 -0.9112131 0.71341807 0.6217491 -0.2677111 -0.011963702 -0.26084134 0.10369134 -0.28667104 0.28394192 -0.4928216 -0.42699474 -0.7478077 0.25370693 0.37511325 0.5243856 0.49682117 -0.069337 0.6072208 -0.22420026 -0.56781805 0.26237524 0.33245316 -0.50404733 0.63034695 0.60430413 0.66811675 0.19599673 -0.0051904167 -0.0033961905 0.34254998 0.3859925 0.09434899 -0.22911674 0.24301712 -0.057462603 0.15406638 0.49094075 -0.68658143 -0.4462905 0.022991924 -0.39115807 -0.676235 -0.27677754 -0.38540724 0.6329327 -0.16670516 0.63613117 -0.14425212 -0.059464358 0.7994127 0.32141113 -0.15504536 -0.13771474 -0.71448046 -0.26482394 0.2654756 0.25454548 0.20076637 0.8528466 0.8383805 -0.01689186 0.45772398 0.42631269 -0.44508156 0.00086983497 -0.8581981 0.21151768 0.034688294 0.124356724 0.15019788 0.63204074 0.17829898 0.28685898 0.21835642 0.22657773 -0.41494405 -1.2342619 -0.13074337 -0.52278477 0.19299442 -0.22760773 0.017784229 0.57782185
264705 0.17657034 0.537872 -0.3136098 0.028666943 0.00046749256 -0.04826144 -0.36321473 -0.30503246 0.36881468 0.38314584 -0.34345204 -0.5846418 0.71188235 0.30090293 -0.09312098 0.7485992 -0.0836984 -0.7043888 -0.0045336126 -0.8138283 0.56449324 -0.13672167 -0.30865616 -0.5450834 0.08729406 0.6066568 -0.28244042 0.67369217 -0.41764227 -0.11635261 0.1723371 0.4010998 0.19175269 -0.37829062 -0.5168583 0.2809217 0.117563 0.2818806 -0.4562733 0.19742346 0.4317802 0.0010051049 -0.43680158 0.35473877 -0.12064164 -0.8719833 -0.03306807 0.28393263 -0.12588103 -0.09102595 0.11946683 0.56056124 -0.4066987 0.15548874 -0.7879584 0.29412124 -0.47966897 0.35355118 -0.5137139 0.30972907 0.13249089 -0.27307737 0.1868499 -0.13175559 -0.30201897 -0.2938182 -0.5875342 -0.22437005 0.1298277 -0.24784134 0.252967 0.5265078 -0.19392806 0.3068285 0.4636466 0.41634476 0.34697214 -0.23771822 0.20513265 0.038476672 -0.57419 0.52698183 0.10891853 0.13328403 0.13429442 -0.33489728 -0.07691207 0.27505627 -0.2111706 0.4418399 0.6775886 0.1797817 -0.03419131 -0.01855771 0.024121972 -0.5024287 0.016741352 -0.10105495 -0.5867022 0.3722117 0.24663301 0.36049405 0.15427628 0.37825793 0.42308307 0.20681223 0.41075832 0.1885099 0.15395625 0.7251998 -0.8139626 0.16656668 -0.6418307 -0.23421185 -0.560937 0.11565426 -0.22461396 0.71471643 0.07948413 -0.30739307 -0.13212259 -0.41303504 0.26066497 -0.2730151 -0.78769606 0.1887901 0.28974947 -0.1071332
361465 0.09563504 0.17821899 -0.053339813 0.117749766 -0.29237753 -0.4141569 0.005342578 -0.2868902 -0.15573657 0.029820267 -0.13621278 0.0040599974 0.014673739 0.2961434 -0.28831807 -0.2149954 -0.35341984 0.15543866 0.15674818 -0.11406513 0.11651905 0.55166 -0.23302454 0.13616338 -0.3278207 0.045880843 0.15052907 0.5068594 -0.1588892 -0.17368326 -0.23957497 0.6507405 0.06540555 -0.4651539 -0.4064833 0.19602294 -0.06353895 0.08941014 -0.09435181 -0.46609032 0.05179124 0.18053398 0.1563782 -0.4621243 -0.104145736 0.30975565 -0.15011916 -0.22258781 0.7593905 -0.061731346 -0.2275461 0.34442556 0.13183291 -0.3690032 0.01901561 -0.13746709 -0.2753578 -0.0026247653 0.07964981 0.23322119 -0.027950099 0.28115615 0.47142148 0.281115 0.114117466 0.06300909 -0.04867397 -0.12959908 0.7572032 -0.68334436 -0.059174046 0.10877131 0.3060425 0.11189885 0.63472605 0.6354874 0.41233048 -0.4158759 -0.27394438 0.48490256 -0.46974683 0.64337724 0.4734201 -0.14987117 0.4139238 -0.21678987 0.2519615 0.4036454 -0.8324062 -0.2443305 0.047406744 -0.71009177 -0.037200626 -0.18216737 -0.019799242 -0.24952644 -0.26229444 -0.22500615 -0.21033594 -0.06542979 -0.09890621 0.13536267 0.422583 -0.07525585 0.7775392 0.047784027 0.12516038 0.42215493 -0.67386705 0.6516809 -0.73852336 -0.030096931 -0.5180464 0.3776272 -0.6337676 0.29445514 0.100816496 0.74963874 -0.061682645 0.42403772 0.23806934 0.1185027 0.5168199 -0.39887077 -0.47269735 0.029012827 0.2088513 0.35438448
362576 -0.0014175981 0.3794156 -0.21422265 0.21058668 -0.45077673 -0.8463645 0.010860346 -0.00017097792 0.22361816 0.030541735 -0.18056698 -0.02904992 0.12105357 0.22714488 -0.5149664 0.0010367505 -0.50666195 0.11905667 -0.19915651 -0.16502999 -0.16585407 0.60403323 -0.4522897 -0.38240242 -0.06741657 -0.24602047 -0.12613098 0.26402777 -0.13209806 0.11667717 -0.2554777 1.1334236 0.24065325 -0.768846 -0.6633553 -0.05799425 -0.1917617 0.23526399 0.03553197 -0.44243196 0.28732318 0.19546121 0.57741106 -0.6115471 0.059314232 -0.2762899 -0.36289656 0.3213941 0.35088325 -0.18354121 0.16346727 -0.3596012 0.28864118 -0.37133694 0.14551538 -0.10512129 -0.4022562 -0.23970376 -0.13279995 0.26664436 -0.40872118 0.69495624 0.5096818 0.25634062 -0.058468316 0.20987378 -0.025858132 -0.42109552 0.70003945 -0.513559 -0.4285716 0.2117685 0.3300736 0.021435412 0.42049307 0.23705818 0.35315678 -0.23997892 -0.24464227 0.48609516 -0.15488265 0.29925588 0.85034376 0.3318824 0.06746417 -0.36800012 0.31619665 0.24622881 -0.87860364 0.36220813 -0.2614022 -0.31991193 -0.08977205 -0.24327439 0.41608337 -0.09136191 0.10922016 -0.4523741 -0.11528021 -0.3996898 -0.22373973 0.17459539 0.8414506 -0.23272106 0.13199359 -0.4187943 -0.2552374 0.081135765 -0.7839775 0.5479374 -1.0722094 -0.032401018 -0.39963832 -0.092693314 -0.5460968 0.27813804 -0.3553143 0.485326 -0.0651999 0.2196433 0.19046336 -0.02969378 0.18176478 -0.44782707 -0.2503335 -0.14905718 0.21735467 0.45280066
290429 -0.1681464 0.27640653 0.05502654 -0.4700164 0.21512662 -0.48868445 -0.4505862 -0.555546 -0.4167095 0.33936808 0.146697 -0.66915643 0.57245576 0.2998593 0.18347366 -0.07694101 -0.10421377 -0.48976937 -0.14518894 -0.118724875 -0.3387366 -0.12051353 0.4828552 -0.755207 0.09382491 -0.35137326 -0.19714479 0.32130724 0.20539637 0.49148342 1.4403651 0.6385704 0.73077327 -0.38421085 -0.5245641 0.014190353 0.52447927 0.27108055 -0.06295238 0.55911803 -0.1260213 -0.4043184 -0.39277798 -0.615182 0.68896675 -1.1246965 -0.15913907 -0.4983671 -0.15329462 -0.24281307 0.3173512 0.44473034 0.8110366 0.45164666 -0.7214632 -0.40588486 -0.26921594 -0.30406958 -0.14376657 0.36510015 -0.013245106 -0.96740675 0.5000803 0.12093131 0.041104335 0.17583963 -0.19550475 -0.1482799 1.0647396 0.2218059 0.3397562 -0.34303844 -0.24437486 -0.100500435 0.41333413 0.13418628 0.846177 -0.4232067 0.23911734 0.43661764 0.1878819 0.458008 0.52422017 -0.37143072 -0.104735635 -0.69089925 -0.059092227 0.05959765 0.36946338 0.102646485 0.055397797 0.08650934 0.23968078 0.22444704 0.952984 -0.85570854 -0.07151935 -0.061102897 -0.2699909 -0.1784332 0.7320856 -0.26126945 0.20519002 0.71181774 1.1839035 -0.8040097 0.4152565 -0.033442415 -0.16669936 0.408839 -0.22561422 0.06854075 -0.602784 0.5337492 -0.35186046 0.053142842 0.3342683 0.6637702 0.25276315 -0.76303756 -0.23717478 -0.504099 0.40272808 0.61732453 -0.57089925 0.43616906 0.2769758 0.35771218
253792 -0.08434867 0.6264022 -0.15018891 0.15715036 0.047039334 -0.068147644 -0.21381101 -0.170594 -0.1538342 -0.18331942 -0.41600037 -0.40374234 0.1746972 -0.15176725 -0.014232608 0.18161215 0.1434922 -0.12777065 0.13824087 -0.6094041 0.25288045 0.34472957 0.39416617 -0.59629476 0.13067383 -0.05491627 -0.041483954 -0.022759976 0.28085527 -0.3917896 0.013448379 0.4507115 0.5122895 -0.14713582 -0.33316624 0.34216604 0.22507498 0.050429758 -0.5540157 0.5528849 -0.36999816 0.04776845 0.42087817 0.026957365 0.18895762 -0.41380545 0.13325565 -0.20845152 -0.81613123 -0.15466514 0.064639 0.7540319 0.1901826 -0.0012927994 0.20454031 0.19144177 -0.3491826 -0.011791322 -0.122580834 0.3239155 0.23202458 0.12074786 0.14913735 0.071444735 0.021849047 0.848877 -0.40061805 -0.2966187 0.45631662 0.23632479 0.5349328 -0.5937145 -0.09257926 -0.3000685 0.3890457 0.25790557 0.114021316 0.016765615 -0.25388283 0.0617559 0.2953758 0.6347205 -0.042129144 -0.31878114 0.32511932 -0.07085569 -0.10400257 0.03187046 -0.044753127 0.05571099 -0.12943083 -0.13070472 -0.0009974574 0.4110968 -0.42572534 0.096914575 -0.0040875464 -0.015878549 -0.42367512 -0.15006812 0.11860695 0.53554165 0.2573647 0.3573514 0.40564293 -0.5006042 0.41462126 0.20451285 -0.029241828 0.21515855 -0.37406936 0.37555426 -0.42246574 0.20939192 -0.2893425 0.055576384 -0.46193373 1.0391929 -0.23212779 0.31704375 0.12012243 -0.5769726 0.34211802 -0.25177157 -0.5408711 -0.29543293 -0.2232124 0.5399841
326981 0.13417903 0.2919898 0.14917812 -0.18571378 -0.49376878 -0.24271233 -0.28275725 -0.4896731 -0.18447311 -0.08215127 -0.50115854 -0.42566988 -0.104210794 0.3479539 -0.08321501 -0.04573776 -0.16453885 0.065460674 -0.070147045 0.48541364 -0.30480146 0.40015894 -0.14559242 -0.12382014 -0.46023983 0.039866824 0.019171854 0.60233384 -0.42436397 0.16256604 -0.20641077 0.5924264 -0.10941864 -0.2939476 -0.15047175 -0.14842145 0.20876846 -0.022138463 -0.3701513 -0.34655118 -0.15808572 0.11464069 0.25170293 -0.44875664 -0.14273655 -0.10618965 -0.412813 0.46357578 0.43323657 0.13176025 -0.16287209 0.19047679 0.058998145 -0.07695359 0.004164999 -0.05075927 -0.24601829 0.060810924 -0.017074186 0.7562836 0.0298483 0.04153553 0.36257127 0.2484265 -0.20016755 -0.06553476 -0.22088535 -0.2600888 -0.046205256 -0.62211597 -0.19127738 -0.079420365 0.3902447 0.4433827 0.49358472 -0.11242289 -0.0491422 -0.25466377 0.09728043 0.09159064 -0.11969084 0.50727475 0.42246917 -0.15333165 0.4387617 -0.07138005 0.30096906 -0.09606415 -0.4546186 -0.00530424 0.08856092 -0.40719914 -0.2465673 -0.31773818 -0.0311213 -0.065070614 -0.21735442 -0.16839628 -0.33218476 -0.27785954 -0.21846263 -0.08308181 0.65144944 0.1536226 0.83930993 -0.44746414 0.1204428 0.29870775 -0.28847858 0.1893187 -0.39510044 0.11568776 -0.46291345 0.3564301 -0.7872934 0.30597332 -0.03402496 0.48613867 0.32389057 0.050914742 0.31732595 -0.35194165 0.42126948 -0.6294296 -0.223664 0.26165116 0.2965225 0.47726676
359211 0.35775506 0.14100605 -0.0949487 -0.053913105 -0.13615465 -0.34432065 0.14334622 -0.019877817 -0.014912367 -0.25135928 -0.6502414 -0.6910875 0.15855697 -0.10744122 0.13201292 -0.02533818 -0.13862702 -0.4461724 -0.014686612 -0.37629396 0.34514466 -0.13517232 0.35994297 -0.85420096 -0.22871806 0.3883703 -1.0501539 0.12688336 0.35993862 0.17443159 -0.15172936 0.43352106 -0.12787336 0.038088776 -0.09483829 0.5775001 -0.53564954 -0.34413075 -0.31292513 -0.50431013 -0.15077463 0.23384874 -0.5128084 0.15670565 -0.17589541 -0.45699614 -0.09377493 0.21728137 0.13997968 -0.38166854 -0.038181905 0.8727726 -0.011782949 0.022002159 -0.3791943 -0.045246918 -0.07425852 -0.027579904 0.016883139 -0.017316258 -0.2031648 -0.40643063 0.8575717 0.4036879 0.09532055 0.108657666 -0.39797494 -0.023609689 0.18064222 -0.08257 -0.20426056 -0.23387118 -0.15124658 0.35179853 0.24664363 0.23385449 0.44137076 -0.23628692 -0.12731396 -0.3396581 -0.58971936 0.25427392 0.41651428 -0.18516569 0.34899563 0.007760791 -0.5207778 0.388276 -0.25942832 0.17156605 0.22359781 -0.43749604 -0.22186545 -0.019150397 -0.0720783 -0.09792377 0.6049722 -0.047281943 -0.6227393 -0.18781582 -0.09371499 0.029681284 -0.06884609 0.7173812 0.24117728 -0.41516218 0.6283518 0.24441682 -0.34266773 -0.11001705 -0.6449738 0.43738964 -0.62183803 0.19353822 0.086694315 0.143773 -0.22834527 0.33267906 -0.15898307 0.062922984 -0.1537278 -0.05844227 0.32817468 -0.12520248 0.18246087 0.010031155 0.3887764 0.009811659
403852 -0.30726483 0.2814206 -0.13990757 0.24786335 -0.5074936 -0.7239657 -0.45438302 -0.21916638 -0.16877711 -0.033359926 -0.05824492 0.03862215 0.056632422 0.30229127 -0.24265568 -0.17719766 -0.05305162 0.093641415 0.037908286 0.22410838 -0.36515042 0.26332235 -0.30824515 -0.010974875 -0.27029178 -0.043348692 0.27516943 0.52554315 -0.28473526 0.2718851 0.01695931 0.6891017 -0.10102313 -0.6405889 -0.40132758 -0.061747856 -0.2005767 0.35010028 -0.002640312 0.07711788 -0.13692085 -0.013021439 -0.034637444 -0.36022046 0.048389688 -0.046710204 -0.27562326 0.30268994 0.50936174 0.27264574 -0.15678704 0.4860635 -0.028117137 -0.16889817 -0.097046785 -0.35219315 -0.4566368 0.16362628 -0.15346134 0.44405285 -0.058048043 0.15006146 0.6254921 0.09043908 -0.10518355 0.17684704 -0.11245011 -0.043226738 0.18209971 -0.81088305 -0.087577626 -0.066494614 0.44505334 0.45020527 0.32939774 0.42428216 -0.017335393 -0.025269585 -0.10357804 0.16410983 -0.1471053 0.59490186 0.18172635 -0.06688196 0.29195374 -0.15466352 -0.07075426 0.1788026 -0.5737373 -0.122790575 -0.07905983 -0.12014912 -0.41950873 -0.09241182 -0.212042 -0.38943112 -0.09069013 -0.107472755 -0.11150728 -0.12685649 -0.44507742 0.09513365 0.50072074 -0.13090116 0.7922439 -0.28933635 0.2588858 0.024045246 -0.19937623 0.44237736 -0.33993214 0.29837352 -0.22412089 0.18226452 -0.52855164 0.13411984 -0.3372712 0.62158144 0.39353257 0.29450354 0.512398 -0.13994181 0.49257705 -0.011091448 -0.093418896 0.008528689 0.27247947 0.49687845
357535 -0.7608482 -0.15994678 -0.16811973 -0.1706927 -0.17171258 -0.56295997 -0.14790274 -0.1695671 -0.016546652 0.006961316 0.12628904 -0.305135 1.0370777 0.5835733 0.024755312 0.23538665 0.09617816 -0.14281297 -0.25289148 0.5615357 0.18239012 0.2558058 0.033996113 -0.74444854 0.18978767 0.06943442 -0.04260647 0.8133109 -0.524373 0.2744919 0.23311208 0.7345436 0.26039544 -0.03017921 -0.74475163 0.96047217 -0.10984227 0.4164091 -0.3366985 -0.21913247 0.31749657 0.17817648 -0.552567 0.38547108 0.80461967 -0.9492823 0.7386246 0.5618934 -0.3351698 -0.1371426 -0.36572728 0.11033487 -0.20945033 0.20544119 -0.48616245 -0.4488256 -0.78456074 0.33707863 0.50667936 0.51304454 0.4028287 -0.11225197 0.69080263 -0.106958196 -0.5345935 0.285842 0.23495209 -0.5658702 0.48362744 0.5143092 0.8168067 0.18403713 -0.02399793 -0.14662561 0.38047546 0.33800068 0.089600086 0.010514964 0.11386007 -0.069676794 0.03714688 0.49847332 -0.68331105 -0.37683997 0.020556353 -0.5191088 -0.58143 -0.34741235 -0.25890937 0.7736782 -0.11465591 0.6273615 -0.14056262 -0.19895212 0.7498264 0.32934758 -0.07738205 -0.38524237 -0.60873616 -0.2935425 0.29031336 0.34422347 0.3849131 0.7189427 0.9931339 -0.10090295 0.45120367 0.41848683 -0.27499136 0.02617638 -0.9252231 0.07200713 0.0899868 0.03282145 0.03540286 0.7092517 0.020561932 0.13028768 0.21969117 0.20321898 -0.48905027 -1.2549204 -0.13876975 -0.63104445 0.2410894 -0.40105063 0.033571072 0.6708297
359345 0.087689385 0.46968445 -0.033875387 0.010041993 -0.6643091 -0.35348144 0.2823962 -0.5215737 -0.22696652 0.34616676 -0.15397157 0.09410358 -0.15220249 0.67240787 -0.38494375 -0.22260651 0.022467406 0.20617202 0.20218794 0.21450157 0.078258984 0.080707975 -0.14534204 -0.0044608596 -0.12899756 -0.108344994 0.6315969 0.09142508 0.27909407 0.063203335 -0.3497398 0.36798158 0.12062045 -0.414988 -0.46419603 -0.03799608 0.16326806 0.014315307 0.368267 0.0073032794 -0.08137431 0.2105723 0.0011050976 -0.39633387 -0.025190853 -0.46322036 -0.18901438 0.35245198 0.383696 -0.18832251 -0.046937007 -0.3331248 -0.004195533 -0.12266044 0.13068135 -0.3139356 -0.24549437 0.18387675 -0.07376687 0.52825207 0.056708395 -0.058641367 0.5999256 0.22733237 -0.37810692 0.036668446 -0.20493631 -0.1040953 0.18126166 -0.43621507 0.075269274 0.108832166 0.3544733 0.16356447 0.67841256 0.2664972 0.015636774 -0.088616095 0.025812699 0.3512385 -0.016534122 0.76350987 0.25903967 0.11040676 -0.0851865 0.03859029 0.21364577 0.37696978 -0.60012317 -0.13050936 -0.11656666 -0.36638317 -0.066705145 -0.052957933 -0.055245303 -0.24863885 0.19938146 -0.13084528 -0.09313235 -0.31543112 -0.2007749 0.11986987 0.29732057 0.16655076 0.9741075 -0.12336906 0.3246046 0.13176434 -0.07937859 0.16260505 -0.5159944 0.38566965 -0.08158644 0.09298243 -0.16241698 0.34682465 -0.19202043 0.7123903 0.34591502 0.059673674 0.028960582 -0.22961386 0.3023014 -0.18108612 -0.40083674 0.20499037 0.13433997 0.6860502
402608 0.45152327 0.71987617 -0.56429905 0.19634996 0.18839085 -0.39908808 -0.19261336 -0.2889879 0.3547498 0.3401874 -0.34413284 -0.5491243 0.8876786 0.38761285 -0.10491807 0.9187626 -0.10340579 -0.6677769 0.29817578 -0.81856453 0.82046014 -0.29172096 -0.53663427 -0.4968332 0.089261904 0.23278366 -0.56630975 0.6390825 -0.09265404 -0.08003622 0.16475518 0.4539312 0.13897353 -0.34486312 -0.58188105 0.23328428 -0.041446008 0.114805296 -0.48368353 0.1462376 0.39969587 -0.1406562 -0.41305092 0.3089415 0.14517386 -0.6628264 -0.05084757 0.18237996 -0.06583293 -0.33640197 -0.10008999 0.23868573 -0.48236194 0.14270179 -0.8998029 0.43102548 -0.41610068 0.4816073 -0.82483757 0.26321915 -0.03529936 -0.08389753 0.4062056 -0.040317286 -0.4085287 -0.12893744 -0.6151595 -0.19804476 0.12877317 -0.21610816 0.11733426 0.5582201 -0.432804 0.28586236 0.5331714 0.693728 -0.09750856 -0.3077555 0.09254739 0.13785516 -0.32914197 0.8420056 0.058656212 0.36008304 0.029667139 -0.138423 -0.02080235 0.45002452 -0.20408002 0.76939875 0.5829094 -0.082095765 -0.15306234 0.017283132 -0.013278854 -0.6561102 0.012522678 0.11117914 -0.5993601 0.4797816 0.36036968 0.12814184 0.34169403 0.516967 0.45914546 0.25116 0.2882904 0.22493148 -0.013518425 0.8827054 -0.97315663 0.24832858 -0.7430388 -0.3286627 -0.8663658 0.4612908 -0.21217337 0.96698666 0.0370174 -0.21973108 0.06110946 -0.45160192 0.34689888 -0.23913525 -0.7034904 0.39165422 -0.07660284 0.111113
219252 -0.07778458 -0.15074779 -0.16077687 -0.08524647 0.11546388 -0.46235347 -0.099860944 -0.2894586 -0.1722794 0.03813295 -0.49050698 -0.29174605 0.36058724 0.65016574 -0.15799944 -0.06864599 -0.3744488 0.021525726 0.38555223 0.18892066 0.023278657 0.37084705 -0.24694814 0.09960955 -0.32300955 -0.01193067 0.13600463 0.5558175 -0.16530953 -0.17755128 -0.019868057 0.44668174 0.03834937 -0.2161776 -0.39558306 -0.004793419 -0.14287472 0.13681254 -0.29922214 -0.6176852 -0.02249239 -0.029738452 0.21659428 -0.3816835 -0.12268971 0.27817768 -0.36096627 0.17142133 0.93775254 -0.047574267 -0.3141216 0.38335684 0.11346224 -0.30221432 -0.11807014 -0.29052433 -0.19803384 0.10812418 0.040951442 0.43411502 -0.05480475 0.2035007 0.59389585 0.2172959 -0.19839376 0.24521357 0.08207322 -0.289892 0.3010592 -0.6295313 -0.18062761 -0.14798151 0.2963807 0.15148853 0.39166173 0.45828775 0.19832644 -0.56505275 -0.29216975 0.23777533 -0.16570431 0.66979843 0.6668025 -0.09747337 0.60654116 -0.29584748 0.33747143 -0.24435617 -0.39053112 -0.06483123 0.18873052 -0.29499066 0.13534752 -0.18010895 -0.11725516 -0.21606946 -0.38458344 -0.18493713 -0.27416208 -0.13458213 -0.16802089 0.110531665 0.557366 -0.077717505 0.5826442 -0.12381283 -0.010984569 0.31248936 -0.20259137 0.05049093 -0.5022601 -0.029786209 -0.6464618 0.32698405 -0.44193664 0.18971135 0.057130873 0.33912486 0.10975394 0.1413439 0.2650071 -0.056053076 0.3087245 -0.55171794 -0.1567988 0.010310828 0.07660215 0.36846313
377446 0.11919132 0.94998103 -0.40806332 0.34527868 0.21526177 -0.14875178 -0.11586037 -0.1740859 -0.13041121 -0.21711646 -0.7966064 -0.7471221 0.3318746 -0.09044545 -0.36221105 0.22172932 0.39080715 0.086588755 0.40631142 -0.5787169 0.5830416 0.256205 0.4692306 -0.5361204 0.2135068 -0.03270307 -0.026393868 -0.017054636 0.60208064 -0.4101163 -0.022115625 0.8127515 0.8174651 -0.27196065 -0.67353725 0.4497596 0.47760564 0.19497694 -0.6461129 0.6598675 -0.43749878 -0.20438151 0.4557545 -0.17750977 0.14957511 -0.6588786 0.1013972 -0.33233398 -0.96051246 -0.22195022 -0.12227171 0.83438164 -0.040714398 -0.16243035 0.28734356 0.028898705 -0.4820924 -0.12702906 -0.34744138 0.44101852 0.2820829 0.09975021 0.43944556 0.12712806 -0.14974274 1.2271535 -0.6786437 -0.52205175 0.43798903 -0.012993253 0.9021627 -0.74878514 -0.19843781 -0.29703918 0.57858336 0.30797404 0.11310296 0.08904683 -0.30960912 -0.029113613 0.052477695 0.8710026 0.15364927 -0.41176504 0.43606478 -0.18942323 -0.19646482 -0.14812191 -0.0071957726 0.1273726 0.051616453 -0.17669305 -0.33488134 0.61671746 -0.6701438 0.40277392 0.0567367 0.04306224 -0.47744495 -0.01979116 0.22583552 0.7482795 0.47486484 0.5115136 0.72736216 -0.5021721 0.6598521 0.10476382 -0.17813195 0.109569825 -0.370058 0.3686141 -0.5393947 0.421246 -0.115889035 0.12543167 -0.63023657 1.260341 -0.28594652 0.5767574 0.2476846 -0.713198 0.39836082 -0.043236587 -0.44182694 -0.6736515 -0.33462474 0.8134147
328023 0.026010074 0.6427209 0.07845732 0.07138248 0.024122627 -0.40305328 -0.06661986 -0.3632599 0.012357804 -0.3132035 -0.3893248 0.03351376 0.30226 0.23876107 -0.08137276 0.13811953 0.28434265 0.11071195 0.00037066685 0.46119112 -0.41180688 0.18513258 0.60504395 -0.16012226 -0.6323086 0.11868762 0.41568872 0.04097241 0.31886137 0.14848588 0.2492308 0.7203787 0.22509754 0.0076583545 -0.15964092 -0.2956496 0.055405274 0.0062677083 0.11344718 -0.18799187 0.107303426 0.021698236 -0.055322703 -0.7108045 0.22197041 -0.37500274 -0.566835 -0.14341924 0.20115778 -0.39121574 -0.24192797 -0.1651403 -0.00966682 -0.33011782 0.28376845 -0.22576463 -0.057305396 0.3112033 -0.108540446 0.64284843 0.050395332 0.39292443 0.16565949 0.365803 0.035135873 0.71506995 -0.28045538 -0.03406794 0.4889896 -0.5844814 0.4009247 0.6003366 0.19178574 0.5189966 0.86363494 0.18017672 0.09694778 0.04392845 -0.1439512 0.3925944 0.15583748 0.49431756 0.19315596 0.06940986 -0.32745245 0.005973373 0.32738498 -0.037991524 -0.47388172 -0.020058177 0.1003782 -0.3908228 -0.16074252 -0.11359514 0.06580324 -0.22652324 -0.013979589 -0.44131353 -0.25688997 -0.29103407 -0.44742092 0.34820935 0.13703325 -0.028813176 0.5382804 -0.096644685 0.2674503 -0.05360541 -0.25568146 -0.05842147 -0.5247822 -0.14002272 -0.57950366 0.5978407 -0.15673772 -0.31248954 0.32206923 0.41795164 0.13384801 0.1394281 0.064818375 -0.40720907 0.38195622 -0.34107205 -0.17178881 0.39587444 -0.049628206 0.6337918
258455 0.21106078 -0.15667719 -0.05305082 -0.048280258 0.2753968 -0.5967288 -0.18147214 -0.14065301 -0.124303885 -0.033962656 -0.39216408 -0.38279808 0.025904488 0.2162482 -0.0875318 -0.19293018 -0.4755517 0.19258666 0.32929385 0.3096448 -0.32495812 0.47689527 0.07591963 -0.16356677 -0.46632192 -0.097647674 0.07264079 0.38624868 0.091411725 -0.11755037 0.020028926 0.5085166 0.1549187 -0.1388456 -0.41846743 0.052098483 -0.27592775 -0.025773123 0.075879134 -0.06648668 -0.033368602 0.2044158 -0.12512256 -0.213016 0.10560819 -0.06834541 -0.69530016 0.4428286 0.45913497 -0.3950066 0.14878936 0.27037695 0.23418148 -0.21801391 -0.2932594 -0.6659767 -0.009035655 -0.13540098 -0.09941376 0.49187538 0.16344908 -0.03328891 0.5761797 0.21023102 0.029308256 0.23687539 -0.31259435 0.09075526 -0.119212836 -0.1405676 -0.07485094 -0.3267681 0.02260846 0.4125443 0.23924112 0.25288492 0.113621175 -0.20163622 -0.16496009 0.34097692 -0.38581166 0.58257824 0.98286325 -0.3846809 0.31867766 -0.2220656 0.17590491 -0.450576 -0.003506318 0.16818658 0.14292015 -0.1432291 0.02207296 0.31329986 -0.18187527 -0.32898924 0.14781399 -0.09463209 -0.20279233 -0.8081447 -0.50980973 -0.18928052 0.36539432 0.043523844 0.24620329 -0.1926051 0.0135470135 -0.0784966 -0.33952516 0.2871343 -0.090887815 -0.37761635 -0.48881724 0.3047614 -0.5990787 0.0030618692 0.045627363 0.29930374 0.27765524 0.31300396 0.28649476 0.07985499 0.039284367 -0.6874242 -0.10412067 0.28083813 0.12195668 0.32953438
262584 0.22262336 0.12638451 -0.16445582 -0.13552195 -0.5142608 -0.64913577 -0.09293977 -0.29492703 -0.2264338 -0.09320018 0.008268911 -0.14632024 -0.052215904 0.3975224 -0.15147261 -0.119920254 0.034276072 0.18136089 0.19786693 0.44539982 -0.015124997 0.47341523 0.05130993 -0.29305708 -0.082440786 0.05099324 0.4487223 0.06430673 0.19531633 0.07401087 0.102625966 0.37407833 0.2032056 -0.34467825 -0.6180923 -0.0465949 0.3056346 0.015774138 0.3645266 -0.19188668 -0.23521982 -0.21753116 0.15938275 -0.19492291 -0.04805359 -0.3300686 -0.5673579 0.34555393 -0.0053419326 -0.22549547 0.123807505 0.036496636 -0.03320733 -0.1664251 0.32050195 -0.08296468 -0.062016595 -0.14274074 -0.15414831 0.37669057 0.02820728 0.01769322 0.5848692 -0.05737018 -0.05731261 0.4333429 -0.1713318 -0.016200738 0.076911196 -0.22510387 0.286287 0.0062851463 0.3973682 0.5166139 0.4406499 0.19676526 0.22301234 0.04816781 0.09089281 0.42422843 -0.18462078 0.5562702 0.56758714 -0.07518493 0.23862527 -0.0094272345 0.51454127 -0.28157824 -0.39474076 0.084315285 -0.2486232 -0.48925316 0.034775816 0.19636431 -0.3116104 -0.4296295 0.0778146 -0.011939695 -0.029824227 -0.3295427 -0.30767816 -0.07591073 0.33636507 -0.070380904 0.73835623 -0.5217501 0.18297437 0.044105288 -0.15056461 0.28894877 -0.21561585 -0.11810373 -0.15538783 0.75859934 -0.20773599 -0.082874574 -0.26579607 0.54259723 0.10776775 0.07463378 0.07895957 -0.09593858 0.41998494 -0.36102486 -0.22320254 0.1811772 0.36740494 0.66169304
322439 0.19064666 0.26640773 -0.107248366 0.07149869 -0.38093117 -0.46539655 0.26951113 -0.30378917 -0.19778505 0.053401887 -0.13555636 -0.7144144 -0.015089991 0.35729045 -0.36497056 0.019567773 -0.16127938 0.2709263 0.21210946 0.26633108 0.04128848 0.57306135 0.19831413 -0.4046142 -0.3594836 0.15356408 0.3936977 0.4000517 0.34956694 -0.27950922 0.108557 0.64724356 0.19811624 -0.031216178 -0.67169124 0.23814757 0.19562055 0.12891498 0.18781714 0.0019132418 -0.07902206 -0.29210797 -0.019177286 -0.21989296 0.20524092 -0.6143505 -0.92146045 0.34964848 -0.044297248 -0.6516434 0.27318472 0.35299903 0.20550881 0.0339383 -0.05684209 -0.28108922 -0.06829304 -0.3564961 -0.30014798 0.6609226 0.26649135 0.028896486 0.20028187 0.13444829 -0.19779253 -0.008926731 0.11012982 0.15336286 -0.1304572 -0.07866172 0.23385127 0.101219624 -0.13249348 0.53473055 0.20340429 -0.20257114 0.118329056 -0.30843675 -0.13984345 0.7015117 -0.3882828 0.23041223 0.778428 -0.1894851 0.34101883 -0.30759695 0.5048235 -0.43948674 -0.19904113 0.24534461 0.11411916 -0.32764548 0.25318334 0.083398655 -0.18116751 -0.69717467 -0.15498626 0.17627527 0.17568187 -0.20627216 -0.17297147 -0.20492253 0.03478099 -0.013357644 0.5044959 -0.03186778 0.23815934 0.20128715 -0.4765206 0.41363 -0.4821152 0.15851344 -0.3862679 -0.13496274 -0.06797906 0.019493131 -0.01435036 0.13408516 0.01871534 0.1780727 0.39288175 0.058897227 0.01159331 -0.22127482 -0.55536944 0.24670388 0.31171408 0.38371462
216774 0.040358488 0.17707486 0.34129044 0.18761662 0.17206228 -0.053351417 -0.1397417 0.1711601 0.09759051 -0.3660991 -0.27139434 -0.16290782 0.15999202 0.11827572 -0.26163366 0.29782888 0.09579375 0.021116212 0.21327522 0.3386685 -0.6904638 0.5957657 0.6829393 -0.2726581 -0.22023818 -0.09444975 0.37721467 0.3220874 0.38505617 -0.015401297 0.1739185 0.6282501 0.030658126 0.059393246 -0.41876718 -0.19967526 -0.014310595 0.3184163 0.045598224 -0.35394523 0.09073549 -0.31958103 -0.06995942 -0.18710466 0.032225136 -0.5602593 -0.5647159 -0.17154315 0.30127552 -0.0674707 0.046508964 0.17503747 0.0815957 -0.42820942 0.3074666 -0.44248745 0.07940392 0.16602065 0.104474515 0.5683369 -0.20674434 0.23465684 0.352986 0.11478159 -0.10136407 0.6300752 -0.30832982 -0.03163311 0.4720203 -0.29626063 0.53141034 0.37998673 0.22742747 0.19717357 0.15831776 0.08724084 0.23265634 0.3876042 0.006115677 0.43670094 -0.21898264 0.53407234 0.24627417 -0.21422681 0.054719307 -0.11512677 0.4387079 -0.4288337 -0.16506508 0.2651119 0.075134434 -0.50284773 -0.14111748 0.22636028 -0.1891153 -0.51702833 0.13427378 -0.6029372 -0.09106626 -0.39442852 -0.42278033 0.14766434 0.29070854 -0.093178056 0.3214322 -0.38313854 0.2855042 0.020908885 -0.6765888 0.003709999 -0.23160377 -0.36465657 -0.516501 0.58246917 -0.11985087 -0.17807133 -0.0093864305 0.6137923 0.16470692 0.33418465 0.058483284 -0.41584823 0.40113994 -0.344199 -0.47937554 0.41262493 0.22647569 0.3826175
338387 -0.108475015 0.010781227 -0.07345778 -0.41843605 0.11386886 -0.26621553 0.1603787 0.033682823 0.0838131 0.13599858 -0.24210921 -0.45656744 0.14459977 0.3050817 -0.10591964 0.19792305 -0.32398692 -0.4865979 0.13886032 -0.48416114 -0.35537243 -0.14723046 0.090878956 -0.2982184 0.19899628 -0.21846598 -0.23029372 0.010940763 0.08144614 0.2871335 0.46271697 0.2661417 0.28422004 0.15291277 -0.6108859 -0.17429294 -0.15390009 0.12997244 -0.034080446 -0.18056916 0.3240593 -0.28080034 -0.10479869 -0.043108962 -0.27359125 -0.2708427 -0.32782793 0.24669202 0.24790812 -0.3258314 0.383566 0.17764549 0.1125267 0.23048839 -0.09134872 -0.011295756 -0.11415046 -0.010816333 -0.03456529 0.2927322 -0.505184 -0.11591786 0.12506938 0.2848558 0.10579895 0.081277415 0.14498167 0.44286162 0.15069264 -0.06751504 0.06903532 -0.233304 -0.021677572 0.16385898 -0.012262732 -0.22305267 0.45389822 0.02524684 -0.3073838 0.17862089 0.102169946 0.09771753 0.30700803 -0.121190935 -0.032550983 -0.16784938 -0.213892 -0.10342068 0.2561816 0.38917786 -0.30055436 -0.056285262 0.11744344 0.3014345 0.22017029 -0.5508608 0.019491594 -0.04176481 -0.027986506 -0.07495426 0.030638449 -0.22610934 -0.092603885 0.3345856 0.1350325 -0.078511864 0.229318 0.08434856 -0.43088204 -0.00629618 -0.23204556 0.38716167 -0.5224064 -0.11104709 -0.103842914 -0.07516801 -0.013789476 0.5976812 -0.120231725 0.059406184 0.3677859 -0.23552683 0.060966764 0.08418396 -0.16662304 -0.100355074 0.16668743 0.3366741
39007 0.26120874 1.0003417 -0.709032 0.038120206 0.6230728 -0.5855455 0.009503542 -0.3473357 0.2620135 0.3216076 -0.6360481 -0.67794967 0.73619586 0.20032857 -0.14884639 0.69934326 0.34292415 -0.42495635 0.35741806 -0.44100755 0.41851383 0.05037201 -0.74145585 -0.814151 0.11104743 0.120109804 -0.14675093 0.66464794 0.070446305 0.40346414 0.046156257 0.44616386 0.10623468 -0.35098657 -0.76559454 0.12972741 -0.2273513 -0.29928583 -0.60814387 -0.16888462 0.07452248 -0.07123196 -0.24131614 0.058138445 0.32840368 -0.35302314 -0.37043887 -0.022097243 -0.06139822 0.040222842 0.26781192 0.49859127 -0.07116935 0.11827991 -0.5822535 0.2905902 -0.2979311 -0.13111192 -0.7236745 -0.04429137 -0.26594353 -0.12549475 0.13851582 -0.033280738 -0.5818091 -0.0033436238 -0.82553643 -0.89267695 -0.21880552 -0.28458056 0.4382795 0.3970616 -0.4429302 0.27805412 0.46244442 0.36165518 -0.26027682 -0.3671155 -0.414121 -0.10770654 -0.37848195 1.2166566 0.41052392 0.46712503 0.10821065 0.093568474 0.005050755 0.34015772 0.12922896 0.835287 0.25856838 0.23889987 -0.5133385 -0.0012454444 0.3785529 -0.2136949 0.16467401 -0.008692875 -0.20322575 0.36747235 0.32088566 0.19367215 0.18300144 0.47077638 0.7305978 -0.0831816 -0.39019236 0.28899553 -0.3857254 0.8258815 -0.86721426 0.061715707 -1.0274994 -0.062705345 -0.30611762 0.81174016 0.33843175 1.0119992 0.023577932 -0.37808707 -0.15783115 -0.79421777 0.5362896 -0.14252615 -0.9521141 0.08967945 -0.4738374 0.5381194
346001 -0.026566153 0.3815462 -0.24918574 -0.15059805 -0.41970232 -0.4637465 0.31992665 -0.44004178 -0.028327728 0.31717992 -0.16806842 0.07130997 0.0012573869 0.5695075 -0.5576156 -0.32842597 0.13736375 0.24978472 -0.17553248 0.013478065 0.34085822 0.46764874 -0.22387978 -0.2128266 -0.4124216 0.1577417 0.1926381 0.14567173 0.35356832 0.09986552 -0.44701484 0.56219345 -0.18575828 -0.5134965 -0.47407788 0.22034639 0.10086997 -0.15679137 0.13937593 -0.35481206 -0.0186089 0.33098772 0.15739767 -0.3595405 0.080216125 -0.32469353 -0.35649925 0.29765156 0.25493228 -0.30950648 0.08086624 -0.09026551 -0.2214729 -0.4128509 0.2425749 -0.19698572 -0.4344241 0.33298174 -0.117437914 0.08334917 0.04453799 0.022778025 0.4016797 0.12994385 -0.1034902 0.13170478 -0.4787179 0.10202477 0.24693747 -0.22291762 -0.08647139 0.30886042 0.16642128 0.117475025 0.64244676 0.40948814 0.2168456 -0.28358114 -0.084998354 0.4822591 -0.07570701 0.78197795 0.40192237 0.14997572 0.025438862 0.10629859 0.20350693 0.020287527 -0.57966894 -0.13911884 -0.27103359 -0.39480877 -0.12359962 0.045518633 -0.07131842 -0.36264607 0.038911913 -0.05317544 -0.055551417 -0.1519172 -0.17116015 0.13199978 0.048812605 0.26522014 0.8241448 -0.041071795 0.37516946 0.30925128 -0.004385401 0.28510997 -0.8782696 0.23246437 -0.37521687 -0.012223018 -0.28235477 0.15869392 -0.2894709 0.7327718 0.3222767 0.13445333 0.038661208 -0.03850075 0.34355158 -0.38031363 -0.5776142 0.43113926 0.023484576 0.5671283
333667 -0.03126932 0.5101672 -0.097418465 -0.20648651 0.19118519 -0.50569457 0.24683514 0.14335772 -0.16493905 0.14183387 -0.15033089 -0.56896466 0.6047735 0.26408514 0.28695446 0.10530042 0.15535223 -0.48812255 0.385327 0.005718034 -0.7918422 0.13952936 0.33056194 0.086440206 0.0459677 -0.028682949 -0.39710093 0.12414087 0.076096304 0.513578 0.69717175 0.5568235 -0.048318513 0.07937554 -0.4015171 0.25593695 -0.48572165 0.4096749 -0.50646955 -0.13917294 0.3449904 -0.58385074 -0.37981075 -0.2373467 0.071490385 -0.76442736 -0.10492185 -0.1549014 -0.0953124 -0.2277246 -0.0016809267 0.40469322 0.39141607 0.02971298 -0.3381041 -0.10684752 0.24774535 -0.2386538 0.023103045 0.585869 0.17559524 0.011624044 0.9884628 0.8342642 -0.034887783 -0.28721642 -0.2362491 -0.7338233 0.039315954 -0.045701895 0.45257515 -0.058888756 0.5366811 0.13757306 0.17041615 -0.66000783 0.72150654 -0.21144873 -0.13476402 0.7049185 -0.26471817 0.45737273 0.15201326 0.5332093 -0.34180942 -0.38112786 -0.20125404 0.15166882 -0.11978244 0.53203446 0.3593779 0.15254381 0.18471521 -0.3062442 0.5883535 -1.1293855 -0.18007293 0.08434943 -0.2342936 -0.2730042 -0.0408635 0.360322 0.42657936 0.71362436 0.31091422 -0.67562866 0.77375835 0.40008998 -0.88807535 -0.17146993 -0.5273103 0.640199 -0.33597872 -0.37106448 -0.21927477 0.50341654 -0.16788736 0.47347662 -0.26126835 -0.3920266 0.21552148 -0.46778265 -0.14298894 -0.48316818 -0.6892946 -0.44605535 0.332051 -0.30816638
219066 -0.03151099 0.6189195 0.2092965 -0.1115601 -0.42146507 -0.35676843 -0.2665625 -0.21550708 -0.30580777 0.12953134 -0.61567795 -0.25843272 0.3365865 0.40995497 -0.12570195 0.551345 -0.019503234 0.0677416 0.06408805 0.42730927 -0.119375505 0.41616666 0.091931455 -0.19881219 -0.7722073 0.46285078 0.32748666 -0.262091 0.35733157 0.059165113 -0.11094494 0.80658937 -0.003314936 0.092258886 -0.3851785 -0.39530993 -0.2407644 -0.30518818 0.17077488 0.2617732 0.26523063 0.17185824 0.5031556 -0.68767166 -0.34175768 -0.7054546 -0.50842774 -0.41296896 0.04534682 -0.83850247 -0.33649075 0.23218688 0.037020832 -0.007103889 0.48307535 0.06765173 -0.44519022 0.40971553 0.46587953 0.3939513 -0.14171563 0.41861907 0.3056984 0.33117527 -0.07315103 0.6700886 -0.18396963 0.02514205 0.27559814 -0.9311482 0.021632133 0.5547027 0.5269866 0.2008045 0.81118304 0.16701248 0.519573 0.33409798 -0.14442001 0.6908007 -0.69219863 0.403554 0.130172 0.3826935 -0.2790107 -0.05851814 0.4958718 -0.06033486 -0.53602743 0.3196451 0.21601161 -0.076846935 0.105809554 -0.22838724 0.17949799 -0.1196031 0.348494 -0.43834108 0.061070364 0.3405398 -0.29863077 0.0048438506 0.106232986 0.23310703 0.7010223 -0.6117776 0.27133912 0.5323507 -0.37552223 0.1341091 -0.6545324 0.07296638 -0.20746173 0.29456487 -0.9846097 0.034764107 -0.06556526 0.79246056 0.048650537 -0.08985903 -0.113336526 -0.62754786 0.5189502 0.16157223 -0.47472748 -0.12943165 0.06480216 0.49434197
317376 -0.0042276373 0.1710922 -0.057966158 0.07415147 0.028862702 -0.25238857 0.14644432 -0.28809822 -0.16142814 0.23132892 -0.1757064 -0.3037681 -0.015955292 0.03205165 -0.28910145 -0.2600598 -0.10723969 0.11179691 0.059839476 -0.1919516 -0.06413236 0.556634 -0.022534585 -0.090111844 -0.33954185 0.22139683 -0.07162368 0.15169041 0.32601166 -0.02042676 -0.10185609 0.2882305 0.036260482 -0.36769953 -0.40683386 0.07047674 -0.18999495 0.03161442 -0.0907771 -0.04547911 0.016517088 0.04599056 -0.1430611 -0.3671562 0.07776612 -0.059247307 -0.2622888 0.11381821 0.2189388 -0.1053361 0.014671414 0.121298805 0.22220999 0.01754885 -0.10032131 -0.13233827 0.021305546 -0.049841516 -0.047955114 0.2796626 0.23858468 0.07451 0.26828653 0.17402394 -0.04124801 0.20793597 -0.28240275 0.04425456 0.12863722 -0.13489811 -0.0012833877 -0.08487879 0.1658866 0.200567 0.24660659 -0.046579383 0.095490575 -0.06352805 -0.14862198 0.33369127 -0.03496813 0.2073675 0.69048387 -0.10029666 0.20944172 -0.17471272 0.14815354 -0.017213324 -0.22763906 0.32147542 0.126857 -0.38219 0.10223322 -0.09086306 -0.19940425 -0.107162274 0.011372046 -0.074402854 -0.025951821 -0.27747732 -0.02810681 0.10667573 0.18834741 0.38460028 0.38984773 -0.1105711 0.19932006 0.070538975 -0.1225471 0.21236221 -0.4556133 0.1398437 -0.37440282 0.24334933 -0.23428462 -0.065191716 -0.078025974 0.29194385 0.06377948 0.117832445 0.16775978 -0.20705813 0.07656737 -0.47661537 -0.30480585 0.16889726 0.13236174 0.301886
371138 -0.5005968 0.16894321 0.18858536 -0.071151465 -0.33629793 -0.71354014 0.083788075 -0.9306697 -0.22313513 -0.27079266 -0.24949798 -0.70813584 0.71724945 0.118342444 0.28331366 0.27438295 -0.4123006 -0.7442665 -0.06315285 0.7292208 0.5669501 -0.06765966 0.4826451 -0.7304774 -0.4730881 -0.100981824 -0.33279648 0.41331595 0.36437407 0.31686935 -0.60694265 0.62475735 -0.6853503 0.23165222 -0.38767168 0.035936486 0.02335103 -0.3998507 -0.8388567 -0.5263256 -0.1672843 0.66672015 -0.117714226 0.07799146 -0.51244617 -0.76527554 -0.7539827 0.09780969 -0.26730633 0.013237474 -0.7312087 0.059401628 0.38201421 0.058038596 -0.29412943 -0.52858764 -0.41821137 -0.21887134 0.44450885 0.61255425 0.005772561 -0.024817869 0.9625142 0.5191767 -0.55358 -0.28479597 -0.48151076 -0.6392215 0.67973346 -0.034553163 0.99529076 0.11230932 -0.1663103 0.19478202 1.4185128 -0.31332174 0.823741 -0.8105679 -0.1852742 0.1400747 -0.62907535 1.0245261 0.24811344 -0.22795661 0.26973084 -0.7838799 0.10922062 0.14223015 0.165441 0.28485867 -0.25176403 -0.2907008 0.23100415 0.051654734 0.40202495 -0.5714892 0.11057099 -0.054117016 -0.5899584 0.2155527 -0.16871151 0.17883496 -0.26571536 0.6665098 0.76003355 -0.34760442 0.38979158 0.05388374 -0.2452609 -0.3104208 -0.1688056 0.16585508 -0.28132555 0.47841194 0.44071698 0.15804486 0.45036688 0.3480739 0.074262574 -0.7410303 -1.0852045 -0.5003832 0.2689136 0.13459982 -0.5922499 0.5157072 0.17698506 0.53685087
263629 0.041354693 -0.26212892 -0.017107574 0.021466104 0.15567961 -0.56226426 -0.09368092 -0.07889545 -0.11751747 -0.28867966 -0.28590932 -0.48901594 -0.09283537 0.27706283 -0.22350118 -0.10493059 -0.3818336 0.43263853 0.13849919 0.40760553 -0.3970637 0.4319053 0.31607237 -0.4472124 -0.3889348 0.2634908 0.13546036 0.34110668 0.25115138 -0.16157691 0.10106117 0.6531479 0.06071791 -0.13664861 -0.49810076 -0.20510973 -0.025775911 0.19197771 0.22696178 -0.15056781 0.07744605 -0.06313036 -0.15447478 -0.08641643 -0.0036961902 -0.4694466 -0.7652562 0.5175867 0.4982895 -0.7029485 0.36427638 0.59888905 0.49402297 0.14573766 -0.18251605 -0.6293859 0.18433575 -0.3698337 -0.007637414 0.3837388 0.30458897 -0.17906645 0.4571311 0.39465994 0.013687069 0.57046014 -0.29759225 0.090863444 0.15347368 -0.06210101 0.008565445 -0.4329785 -0.2502454 0.61806524 0.37724096 -0.0011226374 0.013958611 -0.25018254 -0.15938815 0.41638428 -0.25723472 0.5777742 0.8395565 -0.38502726 0.46310705 0.030037578 0.3927745 -0.30866793 0.12960865 -0.08645078 -0.0034564293 -0.035438206 0.032117948 0.34035787 -0.020433763 -0.3043694 0.0040712473 0.12612405 -0.27349356 -0.5369075 -0.49384704 -0.17422979 0.45695898 -0.13158205 0.31139964 -0.42241845 0.1307054 0.039109718 -0.46088624 0.17837425 -0.085199006 -0.40880808 -0.6104449 0.17292556 -0.17667091 -0.038225673 0.19016853 0.35929826 0.30537677 0.24924049 0.25676492 0.024685051 0.16262202 -0.37514526 -0.13735636 0.45880222 0.18806233 0.33497635
359531 0.39716396 0.336755 -0.33804423 -0.016307097 -0.31421277 -0.6527483 0.12530826 -0.42972222 -0.0003163809 0.044591956 -0.18630672 -0.4021385 0.07108541 0.4438598 -0.25683725 -0.09981032 -0.12189184 -0.030804724 0.16923894 0.29266998 -0.07498289 0.18002905 -0.25794375 -0.5747383 -0.5670875 -0.15355664 0.19308002 0.13729699 0.12829931 -0.23776768 -0.03295548 0.6419127 0.1551118 -0.37543187 -0.3680001 -0.12778568 0.16080873 -0.11100159 0.060013436 -0.0901127 0.047264762 -0.0024464205 0.17014383 -0.58395374 0.029609159 -0.2460348 -0.48569924 0.32930017 0.27605662 -0.56207883 0.06310309 -0.17858529 0.41218004 -0.04112664 0.19783184 -0.14399497 -0.23172374 -0.047435373 -0.3162704 0.44116557 -0.24334915 0.33534405 0.2628725 -0.09129482 -0.12621383 0.13760112 -0.2652044 -0.14930396 0.26368377 -0.39487767 0.069172844 0.33222267 0.37612152 0.23635441 0.4421911 0.373383 0.27804706 -0.22546807 0.051803946 0.14384069 -0.13430987 0.3227261 0.5520302 0.062012617 0.046981156 0.033527177 0.41233107 0.22390796 -0.44237784 -0.20047098 -0.06367616 -0.37888196 0.07614612 -0.14264089 -0.047984425 -0.27518862 0.011691809 -0.13960205 -0.22153485 -0.1226239 -0.29588556 -0.22961178 0.4576436 -0.033911142 0.60114425 -0.09219014 0.25170085 0.26597026 -0.32847726 0.48162654 -0.49516818 0.32021064 -0.18663634 0.18944277 -0.3321239 0.26987454 0.104832284 0.45700437 0.34285024 -0.12612028 0.24732083 0.018123448 0.36491314 -0.26806474 -0.4141528 0.036390472 0.2556905 0.3027958
298556 0.0699565 -0.02191219 -0.8393299 0.16308995 0.118360765 -0.650786 -0.2655097 -0.43476087 -0.19503903 -0.08564328 -0.44406396 0.18475738 0.056552198 0.49241745 -0.13255204 -0.43792263 -0.5982002 0.5507498 0.37162873 0.03043509 0.56395143 0.1622206 0.16880822 -0.8443192 -0.23803504 -0.07385535 0.28622866 0.40868646 0.6132332 0.21861568 0.20754746 0.67360693 0.9226388 -0.5380659 -1.1111256 0.6585225 -0.16686198 0.036774665 0.06719455 -0.6631755 0.7313566 0.43110743 -0.35246813 0.53112155 -0.09263709 -0.46499658 -0.8462913 0.6118164 0.17711435 -0.15564133 -0.081615336 0.48147634 0.9080352 0.16901423 -0.2741131 -0.26952344 -0.23550269 -0.33028856 0.27569586 0.49677932 0.73388135 -0.41735965 0.48403856 1.1793364 -0.7290209 -0.08751756 -0.24029332 0.48172945 0.57374436 0.08571587 0.5891133 -0.1284308 -0.34563679 0.5348327 0.67179614 0.29254487 -0.31028524 -0.1786138 -0.35065183 0.67414063 -0.13161282 1.2858932 0.5319619 -0.111790776 0.24725941 -0.2812167 -0.02149629 -0.31099182 0.2880517 0.59427446 -0.10585251 -0.036330942 0.6930107 -0.019333804 -0.054971687 -0.5935697 0.011697372 -0.4168623 -0.39134002 -0.68996274 -0.072581984 0.47362405 0.41857865 0.5493264 0.56040716 -0.44739935 0.55482006 -0.37880448 0.103885226 0.24047168 -0.71630144 -0.57322556 -0.65011966 0.38997933 0.725616 0.20023893 0.44611096 0.8658803 0.048265405 0.43374613 -0.28940204 -0.07118509 0.4729681 0.29556057 -0.31625518 0.42405188 -0.08314175 0.36338487
318868 0.041532416 0.58879316 -0.19898121 -0.25968406 0.2291507 -0.42812398 0.24819806 0.2533861 -0.20973104 0.17027374 -0.03758604 -0.47294006 0.52874506 0.45614052 0.20307496 0.16199148 0.32102072 -0.38236523 0.31041098 0.093051635 -0.69112 0.050174985 0.3096191 -0.090389445 0.01832144 -0.026632836 -0.27017316 0.16109958 -0.14165238 0.43174022 0.73266625 0.69796073 -0.10580358 0.070459284 -0.23813339 0.23940735 -0.48946822 0.26319087 -0.42453173 -0.105492674 0.3551463 -0.64749044 -0.471039 -0.12369752 0.047592454 -0.80930406 -0.1963911 -0.2710981 -0.12232739 -0.2018206 0.099252306 0.4351945 0.43577155 0.084754474 -0.33992496 -0.028399888 0.25309476 -0.18599354 0.017479034 0.49292117 0.19506061 0.04441339 1.0337104 0.8027197 0.121001795 -0.41572335 -0.21494672 -0.65052336 0.011401935 -0.123825155 0.53807807 -0.017504733 0.5773939 0.0777229 0.15082185 -0.6809211 0.88784146 -0.2905049 -0.10887355 0.5415164 -0.33535784 0.2800735 0.25618917 0.4113047 -0.17991795 -0.2519737 -0.19243684 0.18806648 -0.19486079 0.41218784 0.2572219 0.29135627 0.13887717 -0.34778312 0.73882914 -1.1614605 -0.0632234 0.13541035 -0.3598855 -0.32284072 -0.07697908 0.35371155 0.53026795 0.6612925 0.14836174 -0.4569926 0.7271224 0.44250605 -0.9985311 -0.053122208 -0.5046098 0.6233308 -0.4438207 -0.23170057 -0.24425548 0.46394452 -0.0628491 0.5754694 0.0015117641 -0.45754558 0.13215208 -0.57045877 -0.057243016 -0.43598366 -0.68148744 -0.4570871 0.24575904 -0.16299534
228510 0.30404797 0.09137678 -0.15526344 -0.16695613 0.3298616 -1.166332 -0.027101232 -0.5431551 -0.9957444 0.4556367 0.01735375 -0.8496399 0.36799207 0.45490873 -0.3654297 0.3767448 0.045618523 0.0634284 -0.005299043 0.6332266 -0.59379524 0.38567278 0.39764595 -0.05337076 0.39438495 -0.31786448 -0.2752457 0.4325695 0.011444745 0.07760524 0.01315424 0.443008 -0.015558383 -0.36235073 -0.5158518 0.8080214 -0.070358925 0.36991122 -0.8153862 -0.25017738 -0.0020290234 -0.154621 -0.94596446 0.2053124 0.31894386 -0.08628083 -0.40291715 0.6597058 0.26580417 0.024660664 -0.8390302 0.61401457 -0.33693054 0.22376555 -0.5453523 -0.030305112 0.41295937 0.5265117 0.24977405 0.33932212 0.37398067 0.0069490005 1.159956 0.18560272 -0.2428462 -0.1263277 -0.079208255 -0.4955483 0.6633877 0.045403235 0.9297442 0.15960072 -0.14008597 0.1817551 0.34704554 0.010384242 0.42730314 -0.18959886 -0.6120065 0.7511209 -0.3568734 0.17774212 0.41049355 -0.37992343 0.39419588 -0.66171336 -0.2916151 -0.26259783 -0.22618596 0.82563275 0.15263295 0.13216998 0.03369414 -0.34821016 1.1574886 -0.47854745 -0.10663833 -0.6102102 0.2144826 -0.24571809 -0.34696844 0.1334755 0.03261979 0.8986959 0.5831218 0.27296203 0.45730838 0.23622961 -0.09295954 0.18045847 -0.6565073 0.40421072 -0.8477002 0.7252059 -0.5877866 0.062582076 -0.13173282 0.5003292 -0.61384904 0.20874122 0.14011814 -0.9330118 0.14741175 -0.5603147 0.4649157 -0.35056338 0.27778503 0.0070611746
336702 0.015997605 0.4831349 -0.12682103 -0.19267525 -0.426907 -0.14595823 0.06588218 -0.6483983 -0.5409977 -0.051963694 -0.15851386 -0.18455264 -0.11177519 0.51345813 0.115204066 -0.3588558 -0.11102409 0.46793413 0.35854933 0.55360407 -0.09784775 0.09423447 -0.41392 -0.1271424 0.24725619 -0.16077153 0.8959564 0.29198843 -0.014963194 -0.16486369 0.26828405 0.39256468 0.23203664 -0.593992 -0.18974665 -0.2307526 -0.08380651 -0.07048399 0.2474635 -0.14943261 -0.49074432 0.667056 0.55482394 -0.23308754 0.009524489 -0.62270874 -0.2719448 0.37351248 0.24385777 -0.29563344 0.007941365 -0.14260626 -0.17324427 -0.14633532 0.3673474 -0.56163955 -0.19909641 0.12161576 0.08484803 0.31486094 0.026697734 0.01831486 0.45397276 0.3929156 -0.14513238 0.36603302 0.1114456 -0.34354764 -0.08041371 -0.54459316 0.23537423 0.110294916 0.42342064 0.33778232 0.16461197 0.10428461 0.17962499 0.09800552 -0.28841695 0.42692265 -0.09929527 0.063262664 0.06913095 -0.005854003 0.12965602 0.3016315 0.15975004 0.02843033 -0.3555936 0.5512561 -0.37763038 -0.4366231 -0.3518418 0.22936529 0.1627847 -0.24610806 0.020203061 -0.24319288 -0.046047237 -0.2983704 0.11467682 0.5202843 0.38875517 0.08098818 0.8145004 -0.17675711 0.2417305 0.3718857 0.3853173 0.29089487 -0.2534 -0.09957144 0.14713758 0.35221413 0.16180953 -0.1272674 -0.36860433 0.28979817 0.72883075 0.379983 -0.08350305 -0.15435 0.36207202 -0.26754016 -0.27155247 0.14626661 0.32564768 1.0819366
307940 0.20587765 0.5407032 -0.32998908 -0.19954214 -0.32925573 -0.4175893 -0.0436276 -0.30508217 0.04709718 -0.086521864 -0.11581839 -0.2062325 -0.1853979 0.55675894 -0.18491329 -0.44559422 0.13485548 0.20527852 0.020471716 0.52593887 -0.026690003 0.692845 -0.14130734 -0.27879807 -0.27876422 0.42291212 -0.07926167 0.15199916 0.18671875 0.07659205 -0.12513773 0.7042935 -0.09602217 -0.38579464 -0.3454011 0.049968302 0.25859898 0.06369935 0.16570084 -0.30231532 -0.23009463 0.051905822 0.255493 -0.4017086 0.072694756 -0.53883827 -0.763602 0.51065636 0.191226 -0.369462 0.1161451 -0.105018556 -0.108209684 0.037037387 0.4014777 -0.19750738 -0.33223975 0.095100746 -0.089198396 0.44685647 -0.019358596 0.00021335305 0.66993546 0.08996977 0.08249759 0.29351714 -0.112966806 -0.042981893 0.2217314 -0.20982583 0.17535375 0.12335319 0.38004318 0.7396551 0.37692675 0.011445875 0.24885656 0.029911222 0.123720564 0.3517103 -0.18628252 0.41384244 0.50597924 0.01659863 0.31672376 -0.03830629 0.50257003 0.05038471 -0.498306 0.1458462 0.010337396 -0.5454237 -0.18719618 -0.025638666 -0.24676895 -0.3457159 0.06623893 -0.09229644 0.018427556 -0.19822127 -0.22945763 -0.14786942 0.27986327 -0.098378554 0.7732346 -0.16492254 0.33134365 0.11981641 -0.3150661 0.25642735 -0.16075069 -0.090065174 -0.22175775 0.70578593 -0.3748278 -0.05791848 -0.20103838 0.5287072 0.04577333 0.017351517 0.07525844 -0.23538628 0.2033719 -0.22510844 -0.38657922 0.39296398 0.32778573 0.55808735
306548 0.044462353 -0.39363024 0.073756695 0.03388213 0.12434128 -0.33828884 -0.10748468 -0.12345876 0.023410127 -0.08917756 -0.24755327 -0.42143944 -0.05403882 0.16263975 -0.1066229 -0.105041236 -0.31536523 0.098414905 0.30040753 0.34168863 -0.27763206 0.45099443 0.32773083 -0.08424749 -0.09908974 -0.013911354 0.041074716 0.28499854 0.20439538 -0.042601295 0.30023268 0.3119169 0.26707223 0.005141031 -0.7318913 0.00684648 -0.018132696 0.07645965 0.13335203 -0.47096848 -0.023098482 -0.06134208 -0.1660596 -0.25153837 0.041861128 -0.19182302 -0.7936167 0.24693906 0.39187613 -0.31564716 0.282525 0.4424261 0.19678156 -0.22760439 0.12888205 -0.5628097 0.023541374 -0.12310007 -0.069186844 0.24202384 0.14073995 -0.0055743754 0.35693857 0.14261834 0.10167301 0.47929588 -0.08560652 0.23502024 -0.0124059385 -0.24317491 0.2604658 -0.28426412 0.12627108 0.4593687 0.47577742 0.08941027 0.10698308 -0.055646967 -0.19999723 0.49624094 -0.39526957 0.63595474 0.8316148 -0.5036513 0.4235321 -0.085825525 0.6263787 -0.40725762 -0.07429307 0.02663524 0.104200184 -0.48936212 -0.002931738 0.4398109 -0.2023256 -0.6982579 0.061220095 -0.058619726 -0.29616842 -0.399431 -0.50948477 -0.15697248 0.1381405 0.012580066 0.3988759 -0.22274798 0.030566765 0.016050188 -0.5383247 0.34119192 -0.11656268 -0.4555249 -0.45282394 0.56127065 -0.12248624 -0.11521441 0.30916846 0.3440164 0.10749098 0.33163136 0.02914298 -0.23587905 0.29266554 -0.40782118 -0.18347242 0.06471052 0.21036454 0.4812917
308897 0.27572697 0.17014708 -0.21949477 -0.041991536 -0.026004601 -0.74894863 0.021924548 -0.27838922 -0.15510516 0.152038 -0.1516832 -0.59217167 -0.03588529 0.23671542 -0.30988201 0.04119475 -0.18461786 0.17653528 0.10921525 0.14986111 0.050976586 0.5638096 -0.036490113 -0.5963325 -0.42474014 0.08651159 0.09259677 0.09465852 0.41373378 -0.057814743 -0.15313952 0.53858095 -0.14112274 -0.2523852 -0.37679785 0.101156875 0.19234854 -0.11003323 0.07761772 0.12932982 0.006132122 0.028988099 -0.2068401 -0.115956455 0.30562037 -0.6789712 -0.6767789 0.4044122 0.28016472 -0.59618443 0.32014418 0.16790642 0.42952216 0.10635399 -0.018543078 -0.32897905 -0.16252793 -0.43491557 -0.40777323 0.67730665 0.3238236 0.007026536 0.25719547 0.0164845 -0.19644216 -0.27495947 -0.19301157 0.029627457 -0.1421579 0.05198187 0.107041925 0.11052404 -0.16027811 0.29809505 0.21538362 -0.11878741 0.13363823 -0.36348757 -0.21261881 0.38274652 -0.28801692 0.3358237 0.8044483 0.03422742 0.18463089 -0.1104103 0.53169477 -0.30438372 -0.0035952765 -0.109856494 -0.015364629 -0.286893 0.3383801 0.09634654 -0.08014474 -0.47720626 0.016239518 -0.061516948 -0.13341217 -0.2732174 -0.6267099 -0.2389216 0.19787382 -0.17871211 0.48266912 -0.021104697 0.21689525 0.20565672 -0.67759687 0.48824906 -0.49400663 -0.0756154 -0.48725566 -0.029799432 -0.394374 -0.0005762067 0.03383099 0.52153575 0.3101031 -0.047721215 0.4432814 0.19986285 -0.00500015 -0.32576835 -0.7159749 0.5878458 0.10005654 0.45876598
370023 -0.6127454 -0.1913 -0.28265914 0.15821154 -0.09853125 -0.8929159 -0.12476289 -0.04631333 0.023273107 -0.06901964 0.07103405 -0.15899403 0.7869709 0.34710065 0.34943864 0.2577237 -0.014382387 -0.15303303 -0.13242808 0.48285308 -0.014242802 0.4080826 0.12033217 -0.6235249 0.024593474 0.061238285 -0.05390256 0.5308735 -0.62539566 0.29092127 0.0030615048 0.3625325 0.17717075 0.12313434 -0.4974118 1.0616862 -0.20923229 0.104869105 -0.40072972 -0.48317292 0.39637178 0.333478 -0.52687246 0.18848416 0.6485591 -0.5966794 0.42248625 0.6020609 -0.35774958 -0.07242234 -0.2267406 -0.24224381 -0.10273854 0.48557368 -0.3298194 -0.18426299 -0.68026614 0.42788666 0.39599755 0.6595746 0.3986371 0.18575947 0.48879972 0.015719086 -0.2889967 0.22111236 0.22925548 0.12444628 0.5446159 0.43731037 0.6171701 0.47879553 0.32215178 0.33679006 0.604666 0.103206776 0.30687374 -0.27583143 0.28137448 -0.0007070454 0.1553991 0.56368476 -0.3322991 -0.44176704 0.08195087 -0.41341996 -0.47386616 -0.019397713 -0.5341412 0.5515573 0.1055207 0.37355503 0.0032894255 0.05581992 0.29251662 0.22847632 0.023467453 -0.11301685 -0.6136454 -0.25477317 0.21408959 0.30688083 0.23687705 0.3949917 0.9455752 -0.110128865 0.3954365 0.18028031 -0.27476996 0.15014993 -0.64451975 0.07893966 -0.1848883 0.15091118 0.31467438 0.4751102 -0.17364694 0.3004058 -0.19836926 0.3944133 -0.73190415 -1.0853059 0.3391073 -0.58139265 -0.11430443 -0.138026 0.065949924 0.85587895
264995 0.16443507 0.11860465 -0.29354656 -0.08737372 -0.114881404 -0.5167283 -0.12500922 -0.14393142 -0.14429839 0.0912796 -0.107647195 -0.24288674 0.055443726 0.6292036 -0.36331752 -0.13223247 0.124851 0.046095703 0.14673369 0.3377692 0.019588856 0.42843422 0.1712978 -0.34367576 0.110757075 0.1530311 0.28003183 0.23384222 -0.08097149 0.11097196 0.43050447 0.42534202 0.24361809 -0.011523494 -0.75358 0.05112938 0.28786662 0.1813656 0.27185297 -0.6239408 -0.053926166 -0.26934978 0.077595 -0.17514636 0.06621568 -0.26875266 -0.91235876 0.32025182 0.06172675 -0.37475413 0.20892932 0.20071347 0.011742563 -0.32085952 0.3873281 -0.19332048 -0.07463121 0.01116717 0.046652485 0.30041412 0.041932397 -0.158841 0.5217078 -0.18049403 0.1354407 0.6408736 0.025038384 0.08677642 0.23884146 -0.22902161 0.41381282 -0.11491961 0.38510105 0.3776205 0.31709662 0.22519997 0.35045794 0.13247085 0.049171966 0.38141334 -0.10793763 0.6168126 0.6518798 -0.021075694 0.7349815 -0.12960292 0.49126443 -0.30268505 -0.25524855 0.11613208 -0.22266641 -0.5438772 0.08059915 0.30586734 -0.27462497 -0.6976713 -0.1504535 0.07489258 -0.066086076 -0.26332018 -0.20662121 -0.08832364 0.05931723 -0.12073373 0.859308 -0.34344774 0.097550645 0.09816511 -0.3421863 0.32393008 -0.19362059 -0.17469846 -0.3378772 0.5470759 0.060455684 -0.15288043 -0.15912275 0.422248 -0.12685937 0.09597928 0.13835444 0.083026566 0.63511896 -0.3882882 -0.19063552 0.18823703 0.39169884 0.444924
308845 0.22378959 0.33830443 -0.2665736 -0.056199074 0.07383234 -0.4921987 0.09920659 -0.23433402 -0.035432238 0.29717943 0.082172535 -0.6511426 -0.02674377 0.26810327 -0.32748666 0.018552065 -0.13945344 0.1614987 0.105924115 -0.078317516 0.15482216 0.566994 -0.045710802 -0.52236927 -0.4037967 0.1431096 0.21107487 0.15585941 0.2394608 -0.19991681 0.11357892 0.29215428 -0.03459029 -0.27145427 -0.5730062 0.2113187 0.38095897 -0.17730212 -0.0072355233 0.26868948 -0.07641782 -0.10767116 0.021390462 -0.4671385 0.4500539 -0.6820531 -0.9108606 0.49291795 0.115184076 -0.49768576 0.15283723 0.078889385 0.0591951 0.17007867 -0.08016342 -0.26090872 -0.02190353 -0.5538097 -0.35495386 0.4963832 0.17357731 0.023793567 0.20305142 0.0033030254 0.014191303 -0.10263203 -0.12768045 -0.054105315 -0.087469436 0.031326547 0.3712436 -0.010016346 0.045674004 0.3582377 0.2490061 -0.19277367 -0.01597594 -0.30877247 -0.16828069 0.5645766 -0.4528897 0.20722534 0.8321531 -0.11589995 0.2070365 -0.23153476 0.51687783 -0.23205747 0.055795614 0.04680096 0.34906575 -0.22915809 0.18328026 -0.045292467 -0.08933417 -0.7671844 -0.15968378 0.09533786 0.2718097 -0.2786083 -0.31354547 -0.52837193 0.028819839 0.1669396 0.38567987 -0.040585116 0.43434498 -0.0339879 -0.6325896 0.32844728 -0.21699658 0.044646 -0.42029518 0.008785877 -0.27011803 -0.03086868 0.1590824 0.40164524 -0.099107526 -0.1646557 0.47017452 0.18172501 0.17704868 -0.3092983 -0.5150895 0.13352029 -0.048934545 0.26864582
7516 0.059497405 0.10431118 -0.15923394 -0.040791713 0.1777142 -0.20856878 -0.22470868 0.06381369 -0.19499794 0.2451398 0.02479564 -0.0878644 0.29978764 0.011951485 0.14840122 -0.25549158 -0.21273124 -0.053220697 -0.016949011 -0.22222176 -0.42050213 0.19564117 0.38771373 -0.28192413 -0.07973203 -0.10085691 -0.21880056 0.20252115 0.045206252 0.008945893 0.3010885 0.22868603 0.047851093 -0.38084608 -0.19996625 0.010578668 -0.19460858 0.03109221 0.051920876 0.261387 0.24148887 -0.38997334 -0.2657631 -0.42919946 0.16966572 -0.64364475 -0.04227552 -0.053672474 0.13561565 -0.019504365 0.19088565 0.15880644 0.20534039 -0.21956873 -0.31278968 -0.2617905 0.13163014 -0.017036058 0.091533124 0.09008365 0.09201309 -0.28472272 0.30048338 -0.082600586 -0.083102114 -0.15263823 -0.24250576 -0.13851507 0.13987324 -0.12814021 0.20128651 0.060719747 0.2654782 -0.2900908 0.23177283 -0.12504974 0.22271824 0.3354977 0.058483414 0.190997 0.021975135 0.096377805 0.16812809 0.2050944 -0.21279228 -0.24428089 0.15018752 -0.056399312 0.14888103 -0.033797354 0.08416663 -0.21244109 0.11904102 -0.06777017 0.29703465 -0.35151112 0.01419318 -0.19887087 -0.1877947 -0.009631732 0.23717609 0.21209899 0.122507155 0.21552321 0.43765637 -0.24089116 0.3329369 0.19568637 -0.38354293 0.072972745 -0.31045964 0.18613154 -0.058906 0.12109009 -0.1386186 -0.108480476 0.17652573 -0.12173434 0.01232383 -0.10992886 0.0696546 -0.30223173 0.36891934 -0.14346966 -0.3863275 0.038865943 0.073085256 0.036931977
364649 -0.4237283 0.7570786 -0.6445577 0.5205564 0.041577537 -0.15056027 0.05018841 -0.019310981 -0.17330374 0.14448784 0.033429917 -0.72047937 0.6993047 0.10938808 -0.15728277 -0.59098953 -0.03714927 -0.3440749 0.7877848 -0.8940714 0.8898259 0.45842433 0.6249795 -0.74590975 -0.0024242 0.26472372 0.14067148 0.2323446 0.2371408 -0.0013401826 0.35261428 -0.0721667 0.14949961 0.086544774 -0.8459056 0.4921776 -0.44355008 0.16240786 -0.066280164 -0.037925597 0.36995155 0.041989442 0.028452083 0.0011223557 -0.2881099 -0.86423594 -0.22914553 0.010239362 -0.08059333 -0.2456333 0.29983097 0.40765777 0.11522615 -0.31999677 -0.30950907 0.08430927 0.1019536 0.11055656 0.20103069 -0.04615756 0.65614474 -0.049659077 0.65464044 0.13707161 -0.24910365 0.8034952 -0.2015592 0.23639117 0.24685118 -0.1391369 0.40013364 -0.41473672 -0.17877053 -0.5728769 0.70669454 -0.2579417 -0.35788912 -0.12838592 -0.12606327 0.103965744 0.057093203 0.09968752 -0.08832443 -0.052503068 0.76356333 0.5213585 -0.122520015 -0.22152728 -0.16566785 0.30157828 0.055337038 -0.47498572 0.17464371 0.060837805 -0.5857993 -0.25771832 0.30943343 -0.0057386938 -0.40596628 -0.26365995 0.37848318 0.296088 0.24481957 1.0600414 -0.16607702 -0.07154294 0.9165785 0.41512465 0.08220067 -0.009380578 -0.35727003 0.58575946 -0.22151887 0.33876425 0.4892119 0.2751226 -0.05824223 0.59155 0.15741825 0.45151818 -0.51295733 -0.7189142 -0.052585725 -0.74863887 -0.6983498 0.021740507 -0.11268318 0.1976096
307241 -0.54329056 0.33713377 0.124204025 -0.09034237 -0.06916444 0.2882908 0.3753961 -0.38204786 0.34322292 -0.42286938 0.13196044 -0.23898894 0.25515738 -0.48011366 0.010752141 -0.46272364 0.060097877 -0.3661444 0.1443434 0.028115246 0.18851048 -0.03400542 -0.18617906 -0.45508927 -0.6876229 -0.1994027 -0.056481417 0.0058676107 -0.11162609 0.39750767 0.9333076 0.6294544 -0.09341941 -0.054035634 -0.2751994 0.29842988 -0.44512722 0.45240635 -0.751686 -0.5329648 0.4980004 0.1461911 -0.24153739 -0.2532563 0.011459328 -0.6945552 -0.07402647 -0.41129944 0.09047503 0.37510422 0.38445318 0.19510958 -0.09480461 -0.27471557 0.0001756739 -0.78763086 -0.2778587 0.08800261 -0.5747915 0.12455591 0.32425326 -0.31597915 0.46466503 0.4118769 -0.14061965 0.9828069 -0.53004324 -0.05577578 0.084931664 -0.18902177 0.073138565 0.12497146 0.13908939 0.466083 0.050365202 -0.4041718 -0.15828744 -0.07904028 -0.4623256 -0.1729589 -0.1434593 1.07707 -0.70996964 -0.014389078 0.076230034 -0.58425814 -0.07511274 -0.17519216 -0.3206137 0.55973136 -0.104346246 -0.746977 -0.64959794 0.17492811 -0.18767188 -0.5309269 -0.046279766 -0.08978207 -0.21111783 -0.121063694 0.09308803 -0.049881708 0.25881955 0.5204693 0.34891415 0.17909323 0.6470081 0.57669985 -1.0153093 0.17950636 -0.45907193 0.48588043 -0.47543916 0.6736643 0.20080733 -0.16296132 -0.11905006 1.087862 0.23567384 0.48485503 -0.48608574 -1.0699354 0.7527511 -0.7064785 -0.4182628 0.03313917 0.51624477 0.8712577
368066 0.20309395 0.073247984 -0.7683293 0.21953526 0.021059358 -1.019572 -0.1855297 -0.037199456 -0.71131873 0.25662753 -0.10808989 -0.5823287 0.34136283 0.10781007 -0.037746176 -0.10157521 -0.27032992 -0.21771793 -0.08624528 -0.61193913 -0.1667162 0.8887865 0.45316425 -0.954843 -0.46137947 0.19711159 -0.50431067 0.37192836 0.37889588 0.4458331 -0.12096576 0.14162852 0.38984266 -0.13851392 -0.31474346 0.24937807 -0.028683038 0.11571335 -0.5160452 0.009102017 0.018618435 -0.23908806 -0.591387 -0.062580355 0.48850992 -0.2642412 -0.52966243 0.09340155 -0.32017615 0.12601699 -0.41849223 0.76052266 0.44575787 0.31683767 -0.4250483 -0.49176362 -0.1354092 -0.2670482 0.11764278 0.5412151 0.45549506 0.19255763 0.41133463 -0.15764269 -0.5155458 0.31609648 -0.19931932 0.13732004 0.36636055 -0.26562715 0.30342564 -0.4749586 0.05381063 -0.24016364 0.14498807 -0.048594486 0.2770268 -0.33942166 -0.2378794 0.54993534 -0.5242941 0.06984513 0.14106694 -0.40089366 -0.050814938 -0.5751731 -0.5781277 -0.14805858 -0.594556 0.36576027 0.26879027 -0.34675026 0.33476365 -0.73585826 0.21357052 -0.07904964 0.22709973 0.019574631 0.4163032 -0.9551241 0.15898626 0.12986098 0.348675 0.66474664 -0.3783548 0.0705164 0.6787581 -0.18230066 -0.31991252 0.2701926 -0.47686166 0.24413899 -0.32385585 0.6926953 -0.4785544 0.03117304 0.12288916 0.4465698 -0.42152008 0.19558738 0.08444073 -0.41604885 0.47558406 -1.2137946 -0.35559365 -0.55532634 0.31505302 0.18365385
228347 -0.018874608 0.50422204 -0.2604761 -0.24759722 -0.49812827 -0.4982147 0.20539701 -0.5069783 0.26949123 0.21303152 -0.06358826 -0.12192426 0.037409697 0.47112957 -0.46701127 -0.30081853 0.050166618 -0.03321302 0.0706985 0.002952951 0.3566572 0.36795825 -0.22443408 -0.18524556 -0.5391456 0.16728239 -0.059707522 0.12188543 0.38617954 -0.08721041 -0.48841804 0.61457396 -0.20802113 -0.25200266 -0.52362984 0.23718023 0.15399297 -0.19494219 0.018923862 -0.19090776 -0.0038703356 0.27335072 0.21180594 -0.60276806 0.029113758 -0.25407192 -0.28884763 0.6351078 0.48674443 -0.057861168 -0.24003391 0.050737895 -0.30765283 -0.15239213 0.30593538 -0.08841047 -0.40968585 0.21408579 -0.10691302 0.3311443 0.06844481 0.037223756 0.3596666 0.15481609 0.021424862 0.12414989 -0.29241085 -0.10773726 0.33010626 -0.2535893 -0.015411496 0.2448094 0.3070326 0.40422255 0.68306196 0.39905697 0.26054135 -0.13649708 -0.1795788 0.44692522 -0.16668952 0.4848213 0.63069177 0.009443369 0.016200934 -0.058091234 0.40828827 0.21908797 -0.63661075 0.015735028 -0.213267 -0.5790842 -0.12295376 -0.10261013 -0.12799264 -0.29568684 -0.048894178 -0.20415215 -0.12404748 -0.23236403 -0.2621337 -0.054038163 0.3749476 0.23914193 0.6646313 0.032994192 0.32456928 0.31967667 -0.11502212 0.2744662 -0.6190611 0.22754733 -0.53763366 0.29217872 -0.20050146 0.20225899 -0.19793908 0.6619222 0.11285579 0.18535419 0.075192414 -0.2113524 0.27299798 -0.28295562 -0.635815 0.19846311 -0.021412982 0.63007134
357838 0.91002136 0.651262 -1.0161668 -0.23755822 -0.13200448 -0.32253066 0.48757 -0.40086627 0.51224345 -0.27145207 -0.21645282 -0.05670361 -0.57803404 0.4397412 -0.2766239 0.4264961 -0.44321874 0.33035094 -0.34082758 -0.13157482 0.73490554 -0.117445305 0.015372589 -0.8087821 0.16333051 -0.027057251 -0.20681027 0.95861953 -0.2197449 -0.041882765 0.64361644 0.358759 0.73658043 0.02545441 -0.6417969 -0.37013197 0.4384775 -0.31621206 -0.30536526 -0.17052214 0.035366002 0.725187 -0.57644373 -0.27100423 0.34131142 -0.91309893 -0.6725673 0.06523492 -0.18758266 -0.41557252 -0.051067352 0.36151266 0.032287765 -0.3516163 -0.7711042 0.35514805 -0.8889408 -0.35566884 -0.52425504 -0.028854372 -0.080206215 0.15591243 0.23925175 -0.28104395 -0.8399092 0.8824762 0.29214355 -0.10716364 0.31834793 -0.27459273 0.7623633 -0.33763167 0.020979539 0.26740733 0.8178416 -0.25339642 0.08579843 -0.49338347 0.22768244 0.15650588 -0.5011499 0.51524776 -0.13367543 0.25784096 0.070793204 -0.059214734 0.54275465 0.19102672 -0.040246412 0.7922872 0.49314594 -0.5374111 -0.6524961 0.108955264 0.52225137 -0.4896861 0.11317157 -0.3469979 -0.73936945 -0.07175632 0.19485264 0.098900676 0.09744422 0.26538268 1.1559199 -0.13493508 0.5317445 0.07083769 -0.49752298 0.24818829 -1.1878952 0.31628713 -0.36156458 0.5886771 -0.33429974 -0.4646287 0.14383197 0.8233629 0.52486795 0.15132566 0.45252603 -0.7952774 1.1190857 -0.40731952 -0.38579896 0.1252643 0.5394466 0.039608005
419851 0.06985547 0.37423307 -0.37135658 0.069947965 -0.27403235 0.13688704 -0.18691757 -0.11283966 0.4637218 -0.20389545 -0.42583892 -0.21247713 0.41276327 0.094520554 -0.042467624 0.037644252 -0.04857941 0.019554688 0.28873143 -0.06778313 0.10074306 -0.056038044 0.07405644 -0.34185344 -0.19881496 -0.021394804 -0.1104596 0.3089202 -0.28273153 0.04447275 0.30134574 0.38420472 0.3984736 0.25487372 0.011100133 -0.13821164 0.27998972 0.46585092 0.45288742 -0.41149363 0.094757654 -0.2791504 -0.057645585 -0.237177 0.26181194 -0.6567655 -0.36319563 0.06480148 -0.17716083 -0.17122035 0.20213634 0.12937208 -0.06773415 0.03655515 -0.2857042 0.07677926 0.19307356 -0.2643055 -0.0123432055 0.3494019 -0.06480017 -0.111267336 0.16961467 0.20185806 0.18352394 0.3290422 -0.0012274238 -0.005162253 0.003057548 0.047793787 0.1482035 0.13010226 -0.13633026 0.01791225 0.35319868 0.09224971 0.06591303 -0.27421984 0.05998231 0.023607226 -0.60278815 -0.172328 -0.028998911 -0.3827347 -0.0896691 -0.15976293 0.21291889 -0.07215133 -0.46501434 0.1118011 -0.07055891 0.09692095 -0.14316407 -0.36454692 -0.11219755 -0.39121342 0.121215634 -0.032037113 -0.19226688 -0.13739014 -0.14360763 0.22000727 0.048134804 -0.028911043 0.25339544 -0.19129607 0.7038308 0.09532522 -0.31649578 0.50888574 -0.13327816 0.06796173 -0.33469588 0.28960684 -0.004213568 -0.13592856 -0.13175291 0.018776577 -0.07783018 0.25464612 -0.04261314 -0.07691167 0.19530576 0.0065609473 0.09491637 0.31986222 0.2897306 0.0800946
216605 -0.08944402 0.40582737 0.12190819 -0.0023654934 -0.067859605 0.049253 0.25095585 -0.5561703 0.2873021 -0.1276458 0.02588525 -0.7431782 0.62265706 0.050209433 -0.2903327 0.28149682 0.21818288 -0.26554286 -0.0019683356 -0.5304535 -0.2702014 0.024414686 0.4280862 -0.0029650596 -0.28480163 -0.17891881 0.17584817 0.45233923 0.35892704 0.6185801 0.26664916 0.71201664 0.47089526 0.1792689 -0.17698115 0.44444928 0.032413986 0.022887416 -0.15728422 0.0770468 0.06949275 0.15798905 -0.13844408 -0.12268795 -0.23263362 -0.55929506 0.25088438 0.31810382 -0.39961565 -0.109255694 -0.20218934 0.453801 -0.16564102 -0.08215823 -0.7683022 -0.2233397 -0.18697403 0.2794228 0.41561568 0.017050989 -0.07113774 -0.2779229 0.63464516 0.7252421 0.03682168 0.34951687 -0.4581816 -0.40039217 0.34502536 0.17768246 0.41378924 -0.08175102 -0.009031817 -0.025937589 0.05754342 0.08763811 0.8813695 -0.50765693 -0.45125857 -0.08866973 -0.74599385 -0.2173956 -0.034008764 -0.6899036 -0.59865284 0.044640444 -0.40566942 0.1287979 -0.282043 0.51911706 0.058534116 -0.2626688 -0.40249777 0.42005032 -0.6607171 -0.73027426 0.008329937 0.18619427 -0.82108384 -0.5691765 -0.13120836 0.68222 0.66088974 0.33484036 0.5522313 -0.42396036 1.2370646 0.5403184 -0.37518725 0.044011433 -0.5649094 -0.008267577 -0.8213788 0.2631922 -0.48427683 0.2752363 -0.105165385 0.6984104 -0.06850272 -0.55456465 0.1550065 -0.92810655 0.22435313 0.13226582 -0.64140624 0.21534021 0.43403965 -0.12772332
261479 -0.021763915 0.57413584 -0.116468094 -0.14381859 -0.4112595 -0.6373922 -0.0067734583 -0.33204207 0.06352932 0.16314514 0.03578364 -0.14766479 0.35526037 0.5510216 -0.17324142 -0.30758476 0.15259899 0.126935 0.3313415 0.5093183 -0.11997395 0.5462216 -0.042957712 -0.3474671 -0.33726102 0.06867597 0.26018113 0.094906405 0.41653538 -0.22139502 -0.061005656 0.6380456 0.20535372 -0.28888685 -0.24181223 0.05851092 0.097524256 -0.048365768 0.09823994 -0.079645894 0.11349768 0.05937186 0.28533685 -0.4107674 0.095223755 -0.5826803 -0.4772038 0.39335155 0.33706424 -0.4578572 -0.19486377 -0.19590831 0.06502144 -0.071585745 0.2374221 -0.403519 -0.28145337 -0.00742793 0.10030658 0.46601486 0.14930005 0.07337846 0.28374648 -0.028826807 -0.06460366 0.34687752 -0.13717079 -0.09079402 0.11101434 -0.35001266 0.0919412 0.17743458 0.43277466 0.390606 0.49505052 0.20269068 0.027704688 0.036487177 -0.12042114 0.40300146 -0.02580605 0.59221977 0.46263516 0.1153813 -0.055117253 0.12453255 0.26559895 -0.0005295449 -0.49085355 -0.209716 -0.115665466 -0.17788215 0.041949566 -0.2243217 -0.37991408 -0.08391477 0.036538854 -0.35872886 -0.069589175 -0.12909716 -0.22634265 0.0841723 0.43955395 0.0044344887 0.6384026 -0.32251015 0.3233027 0.140497 -0.30926877 0.37594607 -0.45309782 -0.030501356 -0.18747757 0.39207968 -0.33475325 0.16155659 -0.21578583 0.33185968 0.1956386 0.15138747 -0.054215398 -0.024886906 0.185525 -0.4818293 -0.5424792 0.18226822 0.07839083 0.41258097
316339 0.3812474 0.10659515 -0.6369033 0.27683425 0.071530476 -1.1405414 -0.1900912 -0.059883174 -0.4769647 0.419698 -0.1782455 -0.607367 0.27052957 0.012532769 -0.10585103 -0.12965862 -0.19150057 -0.25789055 -0.2181854 -0.6148622 -0.35928842 0.89435935 0.3042927 -0.71128166 -0.5241541 0.25262424 -0.5566825 0.39720088 0.2829244 0.57417053 -0.16681084 0.31849575 0.44809458 -0.43490303 -0.34755477 0.3109612 0.06739578 0.1873095 -0.6071076 -0.22521903 -0.054062992 -0.18317297 -0.5201732 -0.12174443 0.61889696 -0.24619554 -0.5070246 0.07223343 -0.3757365 0.107367836 -0.38321522 0.8022881 0.2142343 0.12537697 -0.26829183 -0.45468658 -0.25263247 -0.092886984 -0.00045837509 0.46688226 0.44786447 0.2004071 0.4047401 -0.24037255 -0.52727664 0.33461124 -0.2486254 0.16780177 0.47969294 -0.22621821 0.25486922 -0.30552062 0.07657364 -0.3818579 0.23015222 -0.15189104 0.106609 -0.1358965 -0.10402131 0.60958195 -0.24213088 0.1612713 0.09416892 -0.47990078 -0.12126453 -0.6523501 -0.43352753 -0.0029668624 -0.57950675 0.42482167 0.10118092 -0.36833394 0.36026123 -0.46409985 0.1870507 -0.13711157 0.27828842 0.21688837 0.5026963 -1.050887 0.23713672 -0.0632381 0.3419317 0.7375261 -0.26546 0.025464516 0.6074095 -0.15191282 -0.35012802 0.4339237 -0.33238766 0.18349907 -0.33915666 0.6570579 -0.29558787 0.052726176 0.2126325 0.39760408 -0.4594012 0.33213282 0.16177255 -0.38781956 0.5324763 -1.2443867 -0.13929434 -0.64337283 0.29250285 0.051406074
263774 0.3108646 -0.2491352 -0.1620326 0.029624557 0.38354585 -0.3478106 0.11847588 0.46014813 -0.2975401 -0.31644467 -0.31541705 -0.45697066 -0.3168075 -0.28978366 0.07910514 -0.41757002 -0.45282933 0.033628248 0.09790489 -0.05196872 0.10481332 0.5726997 0.3104464 -0.7153083 0.02750318 -0.0042216955 -0.26544753 0.14912917 0.29029125 0.34019062 0.3612025 0.6291622 -0.20481656 0.21187471 -0.5513214 0.37549755 -0.07689679 -0.59832424 0.016154002 -0.46987227 -0.25159213 0.11219995 -0.09962442 -0.20963971 -0.24426624 -0.46314004 -0.5899626 0.16559543 0.44792706 -0.43240348 0.44230095 0.92733276 0.12581994 0.13452981 -0.15053688 -0.6752478 0.2452362 -0.7707326 -0.3508471 0.011775655 -0.21649745 -0.6848082 1.1799973 0.34997964 -0.07220017 0.6322451 -0.39171037 -0.12176721 0.11112048 -0.20220217 -0.11259257 -0.5897256 -0.43192106 0.26455265 0.14598115 0.009561817 0.23646455 -0.30112892 -0.22496358 -0.15785046 -0.40731117 0.55014455 0.9096161 -0.029479653 0.72969013 0.30787146 -0.39134225 -0.25502816 0.0683469 -0.013589897 0.07556534 -0.26380908 0.0067058615 0.61389154 0.16235729 -0.74204373 0.59876734 0.13780622 -0.72168046 -0.76537293 0.10847265 -0.3466504 0.041560963 0.6691862 0.34272212 -0.5933803 0.4177949 -0.17801109 -0.711845 -0.24363065 -0.22847408 0.25653195 -0.8389028 0.10092182 0.07694834 0.2415445 0.27154276 0.31522462 0.24663709 0.42312825 0.40008378 -0.2007803 0.1622915 -0.3520744 -0.33094376 0.17991777 0.5724949 0.49189615
312735 0.052753147 0.36341769 -0.25225493 -0.22204417 -0.28842387 -0.57988524 0.17362629 -0.4974859 0.10407524 0.24596876 0.016626583 -0.101463936 0.057202786 0.28455535 -0.3151224 -0.3579773 0.10861737 0.030217474 0.22309521 0.057103932 0.29045177 0.4778171 -0.1860268 -0.24438113 -0.3149319 -0.004677023 0.13783546 0.14041755 0.37933788 -0.09229371 -0.45583147 0.5898365 0.11758482 -0.34872907 -0.46023154 0.40453988 -0.010252003 -0.24127555 0.0788426 -0.19432697 -0.05264137 0.34354553 0.22166005 -0.64587104 0.027485883 -0.18779175 -0.23600364 0.53275836 0.53834957 -0.21131723 -0.104896955 0.018513633 -0.06529496 -0.06228299 0.19661535 -0.19065998 -0.2848291 0.1299226 -0.19285649 0.21724284 0.036925912 0.17954253 0.17996193 0.1574846 -0.0046175634 0.3508422 -0.41332707 -0.117970236 0.57588327 -0.22550876 -0.08001484 0.22291134 0.461552 0.19618487 0.54850864 0.32530528 0.36374477 -0.2276911 -0.3781806 0.3712984 -0.10534936 0.5947648 0.6278367 -0.062110804 0.09240264 -0.23418258 0.12256447 0.06728137 -0.70858747 -0.13085616 -0.35749325 -0.7117188 -0.04702431 -0.18774995 -0.24697718 -0.21413484 -0.035769023 -0.2176718 -0.1836804 -0.37653172 -0.19767474 0.009138592 0.24814747 0.14691676 0.7647725 0.10528434 0.3577924 0.2621496 -0.065892816 0.30451962 -0.6824649 0.12337668 -0.40652165 0.3121125 -0.24242507 0.33349493 -0.006957445 0.55320674 0.0509369 0.31471133 0.10626331 0.061367743 0.31160846 -0.4238182 -0.46161917 0.107191294 0.14596789 0.50849533
361446 0.0982621 0.37262854 -0.35774744 -0.20152807 -0.3849796 -0.6016292 0.05362685 -0.3017888 0.3102191 0.3290034 0.062267292 -0.30348113 0.18830296 0.59221965 -0.44315296 -0.045819014 -0.0706667 -0.08105583 0.30395454 0.18086106 0.2034771 0.44487643 -0.17066759 -0.23165357 -0.37369597 0.12233335 0.038159885 0.45199192 0.39812464 -0.091116145 -0.30595773 0.78466797 0.08242714 -0.30990762 -0.6620199 0.19932629 0.032385107 -0.42680386 0.12523358 -0.29945529 -0.015124295 0.14935966 0.13139044 -0.6122695 0.0033320754 -0.3511182 -0.6691513 0.6395707 0.44721168 -0.33789864 -0.2651368 0.094630316 0.087014236 -0.2750444 0.162067 -0.11518698 -0.3866101 0.13526289 -0.27995792 0.34746718 -0.12236349 0.26293042 0.2927981 0.06698675 0.12586889 0.19652614 -0.09983705 -0.08147386 0.20429344 -0.3234989 -0.20490329 0.16685231 0.1743129 0.3173535 0.5175548 0.2131205 0.4563367 -0.03840256 -0.03797152 0.15606153 -0.27307633 0.48895094 0.55864644 -0.1146375 0.14794496 0.10837894 0.31971788 0.14297646 -0.44807243 -0.07190662 -0.3604971 -0.69649947 -0.055595506 0.020071724 -0.18028527 0.019051202 -0.052249767 -0.1979906 -0.1359385 0.20644344 -0.31877804 0.031037852 0.21874899 0.14304414 0.95559573 -0.044897623 0.1713561 0.13944262 -0.13759737 0.45283532 -0.67089635 0.107357256 -0.3191911 0.12879205 -0.0782633 0.27909368 -0.026899539 0.37629312 -0.07482018 0.19857329 0.24207643 0.0745443 0.21996616 -0.27423748 -0.38827768 0.19174054 0.07509472 0.36471236
367923 -0.04029506 0.79528755 -0.32064673 0.238466 0.2770737 -0.18687333 0.034131154 -0.26918828 -0.24853541 -0.29042488 -0.8126748 -0.68988544 0.20213063 -0.15161619 -0.1771728 0.14356537 0.39237857 0.031326648 0.30169535 -0.4317811 0.63167125 0.38523304 0.42947882 -0.42590317 0.4310668 -0.022211272 -0.049080703 0.15623502 0.419039 -0.53157455 -0.15500647 0.60096383 0.7931203 -0.2789979 -0.7523681 0.39603385 0.25291297 0.04566164 -0.4759581 0.49849263 -0.34933093 0.060274392 0.5154918 -0.054018114 0.1096015 -0.58437765 0.005642167 -0.3219631 -1.0451509 -0.28569958 -0.015977697 0.9981811 -0.013792699 -0.24616542 0.2595927 0.0494155 -0.4054312 -0.05040893 -0.20471315 0.35671344 0.3085867 0.05995752 0.3790335 0.09376886 -0.14354548 1.0542496 -0.48691982 -0.30675974 0.35505193 0.19481167 0.8537953 -0.6360375 -0.1970713 -0.33733553 0.7918873 0.31196988 -0.052851062 -0.0001331034 -0.18513475 0.0056020166 -0.18212742 0.7522666 0.19498365 -0.51360184 0.42556977 -0.18281002 -0.19724429 -0.07629217 -0.059763014 0.27892095 0.026690837 -0.15907548 -0.2351214 0.65604496 -0.40699512 0.33686766 -0.11176601 0.17557691 -0.4453542 -0.2251208 0.27930167 0.6829592 0.4987452 0.69321376 0.6000734 -0.43446198 0.5661863 0.2488736 -0.025450375 0.18402348 -0.3884944 0.21067964 -0.4426036 0.35439622 -0.251766 -0.077295266 -0.5743687 1.2139039 -0.13348514 0.6648276 0.23595917 -0.6931694 0.28391078 -0.39238003 -0.36615595 -0.6655972 -0.37241688 0.89386135
318351 -0.40472764 0.34598237 0.36098665 -0.24826878 -0.13797088 0.37208724 0.36964107 -0.3849589 0.13024652 -0.49217942 0.04016035 -0.28711683 0.35011107 -0.5957874 -0.10593871 -0.3472727 -0.12749246 -0.2736008 0.35944366 -0.20097572 0.20006134 0.08268313 -0.09170418 -0.54509187 -0.51034623 -0.2038573 -0.08937586 -1.0719014e-06 -0.17521666 0.35864818 0.85810566 0.7078512 0.16866687 -0.14520866 -0.27536985 0.34772187 -0.4203961 0.56996024 -0.7925001 -0.53162724 0.4400124 0.19042888 -0.23796336 -0.15927829 0.033656314 -0.6395546 -0.077701725 -0.45086795 0.026843237 0.19198601 0.3123659 0.3821818 -0.23177621 -0.3499708 -0.13430645 -0.8504299 -0.32699698 0.03676482 -0.4699357 0.2920561 0.3666734 -0.35541576 0.58974725 0.4136394 -0.07997281 0.7928043 -0.651599 -0.21752009 -0.028595686 -0.12319173 0.043110527 0.041412733 0.10109809 0.44196126 0.017842693 -0.29066008 -0.23000437 -0.088666454 -0.574786 -0.25107634 -0.055181842 1.0636578 -0.7663786 0.05781784 -0.030229684 -0.572969 0.11136838 -0.16238455 -0.30307782 0.376489 -0.25510478 -0.7163065 -0.50938565 0.28058448 -0.29956454 -0.7513472 -0.021517524 0.12585136 -0.2496358 -0.13302065 0.07482528 -0.112767346 0.19086047 0.48126072 0.36324877 0.20379038 0.54507065 0.65119123 -0.9709048 0.22309072 -0.44355896 0.492654 -0.3814541 0.72638136 0.08661246 -0.10041153 -0.104852445 1.0003405 0.15628448 0.6019465 -0.31544396 -1.0340599 0.76560533 -0.5897424 -0.4143183 0.17017876 0.5178001 0.90493387
263331 0.000840788 0.32425997 -0.18487494 -0.16536629 -0.5804962 -0.61959386 0.33806276 -0.40040764 0.115571186 0.21610077 -0.032191705 -0.13255247 -0.008162277 0.6537087 -0.22321083 -0.08642755 -0.027831085 -0.09230512 -0.07436792 0.0793018 0.23919006 0.3979471 -0.2515577 -0.27042297 -0.43191248 0.14863637 0.20371766 0.16032772 0.3924124 -0.063046105 -0.27933374 0.577809 -0.00860801 -0.33795887 -0.51987845 0.38289478 0.032883387 -0.28071368 0.014549511 -0.37123957 0.13668229 0.23718636 0.32634908 -0.5955282 -0.18172565 -0.08829633 -0.23682883 0.4701895 0.5558539 -0.18751809 -0.14076959 -0.04188732 -0.05322699 -0.3592877 0.24725893 -0.1933543 -0.16743262 0.04464722 -0.14662904 0.2571949 0.119739324 0.02806515 0.25168267 0.20675644 -0.050301738 0.15109599 -0.22564486 -0.011207289 0.3468064 -0.36439943 -0.23320906 0.3529707 0.27829847 0.46348172 0.6504482 0.25007138 0.14704122 -0.25610575 -0.3009141 0.43467876 -0.15624751 0.83900434 0.7456466 0.04093912 0.2462287 -0.11153783 0.41167066 0.25806835 -0.71905136 -0.21296766 -0.17598529 -0.56689954 0.02984665 -0.13036047 -0.25342742 -0.15571944 -0.056111548 -0.09869861 -0.35857973 -0.15403199 -0.027006496 0.11258502 0.21148738 0.10083251 0.77251726 -0.049744256 0.15312697 0.49432462 -0.25292134 0.43168518 -0.7783364 0.28398117 -0.33134672 0.1158109 -0.2305223 0.4126886 -0.036474988 0.58411336 0.07727572 0.3013802 0.11902 -0.014455671 0.29871166 -0.3958437 -0.4145917 0.27116302 0.17641807 0.53821623
419038 0.09661845 0.12439688 -0.18801211 -0.058820035 -0.23016153 -0.36803427 -0.038514912 -0.11207426 -0.114165746 0.023566412 -0.14475362 -0.23626044 -0.22301646 0.3627139 -0.2637708 -0.1978778 0.18988045 0.17127405 0.25309283 0.37530684 -0.093613915 0.6913433 0.19444826 -0.23042896 -0.040918626 0.21736886 0.3274775 0.2491809 0.058546517 -0.19652322 0.18249556 0.4247397 0.09357291 -0.21902043 -0.58865196 0.17390965 0.29499638 0.22697835 0.2304271 -0.35736868 -0.18539123 -0.3029383 -0.004999966 -0.248881 0.12136835 -0.634207 -0.8518802 0.1979333 0.06438464 -0.3766478 0.12449241 0.11502261 -0.023070958 -0.022798175 0.19860815 -0.109296665 -0.104958154 -0.19619814 -0.24981874 0.4297492 0.17081082 -0.085364416 0.740332 0.024824211 0.2655208 0.47806075 -0.021233384 -0.12072019 0.119393915 -0.26613554 0.3004082 -0.075904965 0.27447328 0.56264627 0.39049482 -0.08892181 0.07150213 0.13866794 -0.0013440058 0.4498654 -0.27475145 0.4086367 0.79668903 -0.10654788 0.66293406 -0.042461134 0.63205415 -0.2400445 -0.25636813 0.1077916 -0.08427516 -0.53025734 0.015681673 0.27444297 -0.2951021 -0.41640902 0.0058513745 0.1602807 -0.010348364 -0.33016044 -0.30620512 -0.063378416 0.3252318 -0.10451064 0.73537505 -0.14240763 0.114576966 0.1300053 -0.27703473 0.4697277 -0.15249324 -0.12093163 -0.12196176 0.69939667 -0.04295433 -0.12809391 0.007149765 0.34532565 -0.038124613 0.010632065 0.2040572 -0.29231197 0.5046175 -0.17688408 -0.3404054 0.28836834 0.16890092 0.36349797
420714 -0.042234138 0.29915044 -0.24538429 -0.122555874 0.022157598 -0.5525556 0.13849401 -0.24385162 0.08789801 0.22548391 -0.26852962 -0.19244356 -0.19121905 -0.108066946 -0.37258312 -0.2607158 0.0688447 0.23019032 0.09127739 -0.12768948 0.070025325 0.3314113 0.048077352 -0.22056553 -0.35837698 0.33706275 -0.14690624 0.037826363 0.47818255 -0.06502044 -0.09862003 0.31710795 0.19115403 -0.3332905 -0.36503953 -0.04513545 -0.041938696 -0.13380606 0.1057485 0.03775969 0.0731792 0.24685518 -0.20417228 -0.186495 0.08455539 -0.35739565 -0.50648135 0.120934434 0.08506965 -0.04437468 0.029701723 -0.06419136 0.1575059 0.14323345 0.06486192 -0.12155443 -0.074605644 0.18930358 -0.3449818 0.08615285 0.24654897 -0.034865238 0.22671883 0.106790125 -0.048228204 0.22610594 -0.32681495 0.36476776 0.13416527 0.07979592 0.023854598 -0.20712198 -0.0028520222 0.00039453292 0.6009309 -0.07264348 0.12114404 -0.14277123 -0.04790832 0.5747308 -0.33454794 0.29727232 0.6825525 -0.06717974 0.022136144 -0.010647975 -0.07163777 -0.13186689 -0.16083819 -0.076474905 -0.042345427 -0.31641063 0.12312126 -0.19988582 -0.025660824 -0.25706673 0.03199986 -0.22012533 0.012182767 -0.39301676 -0.16235946 -0.2246852 0.2875722 0.18027729 0.2209206 -0.14244543 0.29555807 -0.12839656 -0.19373915 0.4340617 -0.1313447 -0.078777716 -0.25984418 0.18016338 -0.4868452 0.0013121399 -0.12010336 0.7479489 0.28445786 0.22965932 -0.11587838 0.06990981 -0.04541581 -0.3854651 -0.15607707 0.3553566 0.07967036 0.26919502
302886 0.002126901 0.36645532 0.0005560842 0.09942065 -0.09825419 -0.46280572 -0.1493323 -0.05082942 -0.07151521 0.38556427 -0.16986424 -0.2160166 -0.061330684 0.22993118 -0.43521515 -0.2645965 6.670365e-05 0.03233553 0.24142976 0.07368097 -0.15288186 0.5791729 0.24011733 -0.2999618 -0.3971347 0.35875022 0.047405794 0.13981435 0.26475602 0.09181488 -0.08454244 0.20498808 0.3549239 -0.25422174 -0.11804513 0.0080695 0.05944484 0.003976819 0.109660886 0.05955627 -0.09905144 0.19178161 -0.17443801 -0.18473488 0.35261697 -0.10974915 -0.3155357 0.10088381 0.25643477 -0.3803322 0.04597403 0.17377844 -0.013207007 0.06306406 0.14555672 -0.36625195 -0.10403116 -0.20239563 0.02434085 0.3472865 0.04122311 0.090894476 0.10676486 0.36838856 -0.026260762 0.10627327 -0.16900387 0.11406598 0.12512876 0.0041887863 0.013673344 -0.1965516 -0.11561754 -0.06603548 0.41174814 0.026688399 0.00044992875 -0.16621748 -0.2746883 0.63787585 -0.2899681 0.48599923 0.43460202 -0.1847341 0.18334912 -0.253232 0.09189518 -0.36819553 -0.17409739 -0.057296753 0.06386466 -0.2309047 0.10677775 -0.045752894 0.067697056 -0.41388562 0.22203034 0.023677232 0.090856925 -0.4071615 -0.14807764 0.2399629 0.2606471 0.04768071 0.17561856 -0.054149903 0.040985227 -0.0470654 -0.3053812 0.24070238 -0.32555935 -0.009904102 -0.31890056 0.21728936 -0.2867624 -0.3889077 -0.29030538 0.39940476 0.14041702 0.17127176 0.11056469 -0.100595675 0.118182115 -0.2729557 -0.17513917 0.26359576 0.19916397 0.0038627791
205402 -0.58569604 0.4786819 0.09150177 -0.17874937 0.0531817 0.18219188 0.39918286 -0.28573588 -0.02924933 -0.269607 -0.087924324 -0.44036126 0.18629101 -0.8253597 0.0050441613 -0.58173805 -0.0029627983 -0.47167706 0.3548647 0.16304338 0.41822788 0.15910336 -0.03862679 -0.63810986 -0.36044973 -0.08939111 0.016734311 0.05027396 -0.2225969 0.54372704 0.8656677 0.5332422 -0.10800721 -0.21153754 -0.18217398 0.27805465 -0.24245346 0.30051455 -0.79152125 -0.33416346 0.5805313 0.16254018 -0.21594141 0.04888301 -0.0023837222 -0.71924853 0.11015188 -0.44319436 -0.17395379 0.14687862 0.40994942 0.4432178 -0.050319165 -0.10342936 -0.04945576 -0.50703347 -0.06977625 -0.10007184 -0.5449238 0.20180875 0.33177477 -0.31143957 0.60590845 0.56531686 -0.24523306 0.90036273 -0.41736156 -0.16025321 0.033522323 -0.021419764 -0.29482526 -0.30068192 -0.121429645 0.16253841 -0.07163932 -0.64081645 -0.24417737 -0.15694046 -0.6765058 -0.2599134 -0.11628242 0.9102916 -0.5587151 0.17491876 0.21372181 -0.42747763 -0.11529758 -0.25994238 -0.30332604 0.6230272 -0.2982415 -0.7274746 -0.5004204 0.21042585 -0.3671891 -0.8682808 -0.18060938 0.1298022 -0.23738545 -0.14954071 -0.039290126 -0.21351115 0.2217386 0.27077702 0.44837534 0.06392559 0.67880213 0.62201166 -1.1257976 0.32140055 -0.77167237 0.552408 -0.51799256 0.5108123 0.2241887 -0.09499077 -0.23226067 0.9280083 0.20619977 0.65748143 -0.35234827 -1.1547227 0.63638806 -0.6316141 -0.38914102 0.026917389 0.52091926 0.62443787
367079 -0.38442925 0.3103428 0.15173365 -0.020971114 -0.05258064 -0.014004454 0.14321026 -0.18010458 0.11864243 -0.13005953 -0.077215865 -0.37230742 0.3132 0.15757675 -0.08596285 0.12788501 0.23556194 -0.1068257 -0.19670181 0.07941868 -0.15075116 -0.17140138 0.12985203 -0.29850322 -0.062669136 -0.19148016 -0.00152307 0.2563405 0.06073718 0.2328587 0.5195571 0.081347436 0.4496345 -0.021638172 -0.36370495 0.026142605 0.083454326 -0.0083127115 -0.024667537 0.2515143 -0.0111928675 -0.33990827 -0.20455737 -0.52774614 0.20003127 -0.37573594 0.2342405 -0.24237421 -0.09756305 -0.108255155 -0.20755789 0.16883747 0.10196988 0.23814282 -0.19633152 -0.024546953 -0.09402959 -0.0089852875 -0.15597701 0.17961308 0.008654727 -0.23629923 0.094270825 -0.10075469 0.1119592 0.2019081 0.027041227 0.19513728 0.41814917 0.49065602 0.09716275 -0.1562962 0.16822082 -0.0366027 0.061733536 0.06264213 0.45062056 -0.02336831 0.061523136 0.06868288 -0.02891923 0.07798688 0.07868825 -0.26970994 0.05321374 -0.2758661 -0.37109503 0.29044864 0.17437835 0.2994363 -0.10054147 0.12417481 0.06768624 0.094144806 0.14423868 -0.33587682 0.013241644 0.06297563 -0.14986351 -0.18975875 0.24311927 -0.05001577 0.20666142 0.56636435 0.1157933 -0.33737522 0.6332021 0.15273947 -0.45222723 -0.03168238 -0.4307559 0.39621544 -0.054191105 0.12836353 0.009490003 -0.11155623 -0.21209872 0.24272868 0.061741956 -0.18907519 0.029041946 -0.50478613 0.067655236 0.2376817 -0.5390167 0.14635678 0.20605557 -0.09020232
300151 0.089249484 0.1907327 -0.13018855 -0.0078122565 0.15533035 -0.17272569 -0.1851791 -0.14272901 -0.057396185 -0.110541746 -0.14103004 -0.39623126 -0.023772895 0.13843986 -0.28832412 -0.0887913 0.16742256 0.14860176 0.38314167 0.32018855 -0.26607195 0.6321211 0.37323463 -0.31235543 0.180562 0.06282153 0.21620128 0.17768149 0.026942063 0.05746442 0.3244432 0.46057013 0.15875676 -0.0450059 -0.7323672 0.10959238 -0.14885974 0.2654609 0.06669398 -0.28520003 -0.20985669 -0.4098141 -0.1671483 -0.23439208 -0.024173561 -0.13223422 -0.6973335 0.01835273 0.4181294 -0.13448974 0.30280316 0.2631004 0.015076743 -0.26025403 0.20037952 -0.45919773 0.029181587 -0.19542058 -0.04625985 0.41881 0.26830423 -0.062359177 0.4808972 0.1688947 -0.06267258 0.6285347 -0.18303804 0.02958867 0.14787942 -0.16609491 0.4784382 -0.23166493 0.3218671 0.1429548 0.2328823 -0.0115605835 0.16805324 -0.048239432 -0.038955864 0.3190538 -0.24627756 0.6261667 0.8330419 -0.25196072 0.57267284 -0.16781522 0.5854108 -0.50685316 -0.13304085 -0.05320756 0.06825599 -0.3364521 0.013529973 0.24619423 -0.36745414 -0.43810824 0.24488065 -0.05736278 -0.082430065 -0.2077484 -0.3881644 -0.017822381 0.48485166 -0.192051 0.23728515 -0.3745195 0.06919977 0.16454552 -0.36993632 0.14601085 -0.055572093 -0.31271273 -0.63571805 0.4746163 -0.23301198 -0.16802843 -0.059135176 0.81471527 0.13192283 0.051864587 -0.014781898 -0.09987992 0.3606899 -0.54385334 -0.15196562 0.081967 0.15011653 0.26532942
263857 0.02842919 0.11873082 -0.27445662 -0.117367394 -0.16357532 -0.5999737 0.20031436 -0.4140475 0.11256617 0.33687297 0.06420989 -0.1341351 0.06390413 0.34150827 -0.3114501 -0.0285235 -0.16885446 -0.14380617 0.08229875 0.11798243 0.25794756 0.41462564 -0.2385145 0.061819512 -0.07965812 -0.004094704 0.508171 0.40410122 0.17822349 -0.12209263 -0.03814027 0.7179619 0.11970266 -0.14106068 -0.5309305 0.0037086073 0.016901104 0.05513046 -0.047932364 -0.332687 -0.18826124 0.15025187 0.31602076 -0.41191515 -0.26493907 -0.14441371 -0.6163236 0.16620585 0.6701816 -0.28764638 -0.17883575 0.16911931 -0.12689254 -0.3359003 0.16555229 -0.41786233 -0.52457166 -0.060618397 -0.16762714 0.2280756 -0.064026795 0.24731074 0.5932596 0.18981643 0.10686515 0.4213089 -0.054553393 -0.1581649 0.6413911 -0.7013286 -0.17894247 0.16538304 0.2647108 0.2196725 0.68909544 0.55742246 0.38567945 -0.2692359 -0.086281694 0.4531573 -0.28915492 0.7020832 0.535452 0.023707613 0.16554078 0.0219555 0.6334005 0.24942839 -0.51780033 -0.42656672 -0.26732934 -0.71742415 -0.15463912 0.24648346 -0.22203854 -0.25565016 -0.040478375 -0.11747749 -0.23985538 0.06884118 -0.1479279 0.07401709 0.14290532 -0.06837055 0.6085095 -0.05972576 0.06670047 0.2875616 -0.24819498 0.39549273 -0.57715005 -0.057188306 -0.4694383 0.22266188 -0.124058716 0.31063926 0.19895715 0.37335107 -0.16473313 0.024088262 0.07335327 0.10583011 0.4639424 -0.1547361 -0.44321114 -0.012650503 0.24158889 0.38858318
355086 -0.27815643 0.01857253 -0.08398029 -0.53463423 0.09122897 -0.9309683 -0.16066477 -0.05738267 -0.5031067 0.28247866 -0.007507659 -0.3900818 0.56046855 0.43124533 -0.5103876 0.20546614 -0.314007 -0.53741443 0.063372076 -0.30744296 0.34461248 -0.015393277 0.38389683 -0.84009206 0.02269205 0.29228857 0.5331069 -0.097221054 0.09892495 0.8457979 0.33835387 0.33706036 -0.06132219 0.59268665 -0.63999015 0.07879087 -0.4155275 -0.34481856 -0.44997537 -0.39535996 -0.030355958 0.22397132 -0.6368702 0.3868005 -0.05965244 -0.8286578 -0.34523246 0.21704008 0.09279941 -0.2530566 -0.43532014 -0.28678 0.32641175 0.21990795 -0.75150025 -0.597807 -0.41341627 -0.046002705 0.3181997 0.4662352 0.49076065 -0.06969074 0.83891946 0.845695 -0.63148683 0.28274974 -0.37735468 -0.27839032 0.07027128 -0.13442557 0.2911482 -0.34412655 0.089632906 0.3689874 0.89535224 -0.63263303 0.320284 -0.9312155 -0.21507011 0.38580677 0.051112782 1.2542228 -0.10337327 -0.044896938 0.22980309 -0.016763005 -0.45327413 -0.5097217 0.28651223 0.2624416 0.30036092 0.47459862 0.04808226 -0.14207532 0.43548098 -0.5540611 0.16483514 0.33528203 -0.52141005 -0.65923315 -0.14847477 0.2518821 0.6132437 0.58568925 0.15058303 0.004092541 0.068232596 0.06668099 -0.26569194 0.018386694 0.09119585 -0.5171957 -0.49613288 -0.034713443 -0.6643951 0.55722 -0.20626403 0.6952494 -0.18848668 -0.60366625 0.31110436 -0.38403794 0.036927503 -0.78771675 -0.62331945 -0.065433994 0.25732613 0.44218582
349142 0.15658872 0.7130004 -0.090484105 -0.115816906 0.124175556 -0.28724828 0.13710392 0.038815957 -0.068335466 0.087579966 -0.1596409 -1.0076631 0.26367906 -0.033307172 -0.24362727 0.04581662 -0.015839273 0.08018716 0.10148513 -0.41196916 -0.032650758 0.3011243 -0.038460962 -0.3285381 -0.6588789 0.22208798 -0.0067750067 -0.036085255 0.21511532 -0.00015271088 0.60898334 0.012363355 -0.028587423 -0.19326366 -0.6239764 0.087438434 0.6433789 -0.16089363 0.004188893 0.2874538 0.48883057 0.045166224 -0.40102708 -0.34272572 0.34200156 -0.643116 -0.5935406 0.20880955 -0.04124557 -0.66772956 0.39435816 0.16039725 0.06030752 0.058118224 -0.46456698 -0.2233909 0.065145 -0.44084054 -0.53873384 0.8133281 -0.06379413 -0.22178602 0.18170595 0.18102512 -0.2378394 0.14985873 -0.71386 -0.26988724 -0.45512572 -0.14413613 0.51089525 -0.26766527 -0.07308859 0.21192391 0.32319734 -0.36427557 0.5087785 -0.63680124 -0.5894151 0.33143696 -0.57741517 0.3990625 0.5655343 0.04286614 -0.0071904557 -0.32187632 0.29220858 -0.585799 0.3687905 0.052701566 0.027701652 -0.36331713 0.25842398 0.16316834 0.4931176 -0.5324149 -0.02043152 0.13372968 0.1637774 -0.31961533 -0.2338644 -0.53514975 -0.0044640475 0.79851013 0.57143015 -0.06977029 0.47687787 -0.012440911 -0.59161216 0.06544648 -0.5594736 0.5733691 -0.6271066 -0.26561585 -0.4464199 0.10216842 0.41984355 0.9600331 0.39844066 -0.109468125 0.6640441 0.118055746 0.29457185 -0.36759478 -0.6621409 0.2552064 -0.035134338 0.28887153
307567 0.04306144 -0.049830038 -0.092273995 0.4040871 -0.08623733 -0.8316831 -0.08673885 -0.56805986 -0.13735497 0.4848546 0.010189125 -0.4058671 0.53463846 0.6882968 0.46049777 -0.14593235 -0.43726388 -0.12553877 0.30843776 -0.5976942 0.15310061 0.4142138 -0.31819344 -0.20972642 -0.25525296 -0.14999272 -0.30005485 0.6018975 0.37280834 -0.09330393 -0.06305411 0.644977 0.59220576 -0.36133182 -1.0020235 0.72962713 -0.051393144 -0.09019965 -0.82093424 -0.7942127 -0.06779331 0.58640194 -0.32548144 -0.6834639 0.21249478 0.16149877 0.06011779 -0.557676 0.29536927 0.101936854 -0.44320405 0.76018655 -0.152098 -0.22672354 -0.063755766 -0.31750512 0.27711275 0.03264501 -0.24560231 -0.07824416 0.09038809 -0.10625927 0.26188213 0.4007533 0.2591301 0.47802937 -0.55670273 -0.23585314 0.77393293 -0.5936112 0.40368095 -0.027520195 -0.61483127 -0.48482373 0.460136 0.3510888 0.11273257 -0.1277918 -0.60950214 0.7342298 -1.0568141 0.5675428 0.29715893 -0.22035214 0.3040904 -0.29947242 -0.055370174 0.54991716 -0.7435474 0.27543867 0.5627484 -0.31619397 0.036238916 -0.086968124 -0.23622428 -0.2747796 -0.5833511 -0.40610525 -0.050659094 -0.35068813 0.15307336 0.08991379 0.40314242 0.54722995 0.47050157 0.3113874 0.77785945 0.14596178 -0.7330247 0.7424491 -0.7089855 0.16005543 -0.91283447 0.09596627 -0.4549675 0.27232864 0.07992192 0.9836322 -0.2900421 0.24369867 -0.2811098 -0.33706313 0.7417133 -1.0122246 -0.09402107 -0.10600444 0.44656795 0.12305466
282050 0.16343154 0.4740509 -0.0044243373 -0.16858889 -0.021376101 -0.40432075 0.21365117 -0.0074030706 -0.11886594 0.01910833 0.04892386 -0.78761226 0.123314835 -0.058870133 -0.20458011 -0.011773976 0.0033554016 -0.003134563 0.08180012 -0.25124 -0.037639942 0.383475 -0.12033938 -0.35991 -0.3468039 0.18314467 0.02315418 -0.11540995 0.3176773 -0.08386544 0.3266593 0.32389352 0.023375902 -0.19970994 -0.7589811 0.11716665 0.5022203 -0.103105836 -0.08940572 0.24625523 0.3648486 0.086362235 -0.4603981 -0.2927375 0.30260926 -0.71433085 -0.6457686 0.25500342 0.1878077 -0.6156596 0.60921586 0.19712287 0.19260457 0.1200436 -0.3592789 -0.17114636 0.14546663 -0.4428601 -0.6419717 0.6469817 0.20472032 -0.027018331 0.30342424 0.08020338 -0.17307983 0.12527017 -0.6051346 -0.21254285 -0.18498512 -0.11491693 0.5987219 -0.16783454 -0.108887754 -0.00024140596 0.37757474 -0.28112832 0.40694273 -0.40386572 -0.45143306 0.455417 -0.38503978 0.19576415 0.6647496 0.10140311 -0.09966438 -0.12265715 0.55230856 -0.48937166 0.1252846 -0.09594449 0.066112146 -0.35330254 0.13845108 0.03734059 0.42897516 -0.55576724 -0.028920716 0.1321472 0.16875584 -0.12690322 -0.25806665 -0.5639716 0.052841425 0.58925563 0.45463622 0.0728064 0.45369288 0.28359058 -0.58237886 0.18643816 -0.38784415 0.5131272 -0.6941279 -0.2261258 -0.69909877 -0.07956385 0.36702505 0.9194106 0.3570212 -0.033768985 0.7690246 0.048155006 0.0038460575 -0.37773636 -0.6780366 0.24515267 -0.20585352 0.26158333
315476 -0.24081016 0.11594585 -0.20217538 0.008726422 -0.030145911 -0.25651368 -0.26834548 -0.5313394 -0.27393717 -0.03108835 -0.65450233 -0.2153786 0.14816934 0.5509795 -0.022553828 -0.27502242 -0.2581528 0.30857193 0.21803837 0.38163793 -0.30730408 0.36268488 -0.18266842 -0.15693173 -0.09667783 0.016692955 0.22250941 0.63807046 -0.33038506 0.09049494 0.18114737 0.48516273 0.031047236 -0.5422233 -0.5504152 0.13621023 -0.004366171 0.063433975 -0.39968255 -0.5941999 0.011314787 -0.2583153 0.19133745 -0.49877718 -0.47296467 0.054456174 -0.2913123 0.14194487 0.7389621 0.24157038 -0.20099302 0.13042298 0.17164136 -0.33203986 -0.017747499 -0.30155507 -0.27580893 -0.022379614 -0.034256455 0.49340853 0.06208179 0.063118644 0.5856476 0.2768871 -0.198483 0.33524194 -0.0120573165 -0.12687372 0.25628972 -0.5221693 -0.15987799 -0.20908 0.32782814 0.28267303 0.4575903 0.25851884 0.08908247 -0.32838577 -0.29752004 0.08663587 -0.12254865 0.78284794 0.6978838 -0.03081487 0.5451153 -0.04707043 0.08933704 0.006647392 -0.59972477 -0.15926462 -0.1532216 -0.176513 0.09812407 -0.1039368 -0.039181553 -0.2852115 -0.301346 -0.2016865 -0.39713898 0.01538488 -0.2299488 0.022059944 0.68948644 -0.07309373 0.50032926 -0.2977703 0.14752842 0.3431254 -0.29513478 0.23918058 -0.4354505 0.028353008 -0.726005 0.21834023 -0.72808564 0.11430789 0.111874275 0.5928699 0.23826602 -0.104167454 0.47587377 -0.40287146 0.30051735 -0.65438336 -0.10929546 0.12542245 0.11662965 0.59308946
199320 -0.10509494 0.569749 0.012226906 0.1286315 -0.1633707 -0.42004457 -0.08512884 -0.28600124 0.059846636 -0.2869166 -0.41448498 0.013656183 0.12716183 0.25339076 0.15373576 0.16548142 0.29819727 0.14781533 0.032685433 0.29193556 -0.7117723 0.49648187 0.33558524 -0.0902648 -0.5597996 0.048012517 0.2592463 0.06890527 0.30550835 0.049682867 0.0013791895 0.36862588 -0.005202296 0.02454044 -0.034961835 -0.2635191 0.03637454 -0.030977754 0.23206374 -0.2184816 0.10342862 0.07112248 0.07843155 -0.21524744 0.38754267 -0.34857827 -0.44680104 0.0043214764 0.10371918 -0.14125565 -0.2405009 -0.07762541 0.09969349 -0.13312186 0.24857712 -0.4018502 0.06628426 0.1539565 0.069026604 0.7135327 0.05530136 0.36685893 0.06909122 0.2487364 -0.04158323 0.55890495 -0.3241176 -0.20078245 0.43224657 -0.56050634 0.3168166 0.72351485 0.37654707 0.30856875 0.7900334 0.51115936 0.11708856 0.1925796 -0.09861331 0.2212407 -0.15920705 0.6650463 -0.10092009 -0.15736946 -0.3074228 -0.12207182 0.24192435 -0.00971601 -0.4501217 -0.111582726 -0.13788238 -0.6456016 -0.17772841 -0.035140354 0.17154299 -0.054928456 0.16184394 -0.55859905 -0.14068794 -0.3307191 -0.2875138 0.4952003 0.19991922 0.006071544 0.5287856 -0.06558542 0.55614614 0.111748524 -0.421202 0.094695576 -0.74019694 0.17162599 -0.57206535 0.37727833 -0.2890235 -0.14552028 0.24648821 0.61108595 0.31789014 0.1728288 -0.09421337 -0.49457783 0.4368351 -0.27691814 -0.34620187 0.35961732 0.0032524203 0.68049794
